4890 100
0 0 0 0 0 0 0 0 0 0 0 0 11.2105 0 0 0.644093 0 0 0 0 0 0 0 0 0 0 0 0 0 0 0 0 0 0 0 0 0 0 0 0 0 0 0 0.00246291 0 0 0.127753 0 0 0.0218578 0 0 0.202918 0 0 0 0 0 0 0 0 0 0 0 0 0.0587688 0 0 0 0.018735 0 0 0 0 0.159034 0 0 0 0 0 0.180291 0 0 0 0.441247 0 0 0 0 0 0 0 0 0 0 0 0 0 0 0 0
1 0 0 0 0 0 0 0 0 0 0 9.27049 0 6.3892 0 0.271271 0 0 0 0 0 0 0 0 0 0 0 0 11.6958 0 0.0682988 0.00589694 0 0 0 0 0 0 0.245436 0 0 0 0 0 0 0 0.101476 0 0 0 0 2.54229 22.7662 0 0 0 0 0 0 0 0 0 0.000367016 17.7003 0 0 0 0.720423 0 9.45521 0 0 0 0 0 0 0 4.5343 1.83905 0 0 0 0 0 0 0 0 0 0 0 0 0 0 0.00213004 0 0 0 0 0 0 0
2 0 0 0 0 0 0 0 0 0 0 0 2.55152 0 0 0.00998423 0 10.6338 0 0 0 0 0 0 0 0 0 0 0 0 0 0 0 0 0 0 0 0 0 0 0 0 0 0 0 0 0 0 0 0 0 0 0 0 0 0 0 0 0 0 0 0 0 0 0 0 0 0 0 0 0 0 0 0 0 0 0 0 0 0 0 0 0 0 0 0 0 0 0 0 0 0 0 0 0 0 0 0 0 0 0
4 1.03849 0 0 0 10.802 0.0444522 0 0 0 0 0 0 0 0 0.0382697 0 0 15.5386 1.42199 0 0 0 0 0 0 0 0 0.180124 0 0 0 0 0 0 0 0.0233605 0 0 0 0.00041626 0 0 0 0 0 0 0 0 0 0 0 0 0 0 0 0 0.0456742 1.10747 0 0 0 0 0 0 0 0 0 0 0 0 0 0 0 5.9364 0 0 0 0 0 0 0.00211916 0 0 0.31525 0 0 0 0 0 0 0 0 0 0 0 0 0 0 0.0771934 0
9 0 0.0945736 0 0 0 0 0 0 0 0.151824 0 0.1342 0 0 0 0 0 0 0 0 0 0 0 0 0 0 0 0 0 0 0 0 0 0.00961127 0 0 0 0 0.0206915 0 0 0.0423087 0 0 0 5.16447 0 0 0.739045 0 0 0 0 0 0 0 0 0 0.0232427 0 0 0 0 0 2.74992 0 0 0 0 0 0.00345403 0 0 0.219508 0 0 0 0 0 0 0 0 0 0 0.000916462 0 0.287779 0 0 0 0 0 0 0 0 0 0 0 0 0
11 0.644593 0 0 0 0.00206274 0 0 0 0 0.178511 0 0.845118 0.402551 0.483224 0 0 0.0272589 0.0904719 0 0 0 0 0 0 0 0 0 0.176336 0.341816 0 0 0 16.2181 0 0 0.302038 0 0 0 0 0 0.635983 0 0 0 0.367447 0 0 1.05932 0 0.110298 0 0 0 0 0 0 0 0 0 0 0 0 0.529651 0.326304 0 0.172496 0 0 0 0 0.0157702 0.00159933 0 0 3.96817 0 0 0 0 0 0 0 0 0 0 0.275324 0 1.09738 0 0 0.000149958 0 0 0 0 0 0 0.27609 0
235 0 0 0 0 0 0.0878868 0 0 12.4766 0 0 0.386075 0 0 0 0.873442 0 0 0 0 0 0.0978127 0 0.00473056 0.02365 0 0 0.0918258 0.0474018 0.0676656 0 0.000833522 0 2.72611 0.824033 0.661104 0 0.00250886 0 0 0.01229 0 0 0 0.322232 0.529708 0 0 0 0 0 1.43967 0 12.4947 0 0 0 0 0 0 0.0104157 0 0 0 2.51544 0.047467 0 0 0 0 0.067015 0 0 0 0 0.316368 0 0.0339835 0 0 1.46266 0 0 0.848497 0.0280024 0 1.32052 0 0 0 0 0.0279518 0 0 0 0 0 0 0 0
13 0 0 0 0 0 0 0 0 10.75 0 0 0.180117 0 0 0 0 0 0.00345149 0 0 0 0 0 0 0 0 0 0 0 0 0 0 0 0.0169265 0 0.0037334 0 0.00218366 0 0 0 0 0 0 0 0 0 0 0 0 0 0 0 0 0 0 0 0 0 0 0.716875 0 0 0 0 0 0 0.00154107 0 0 0 0 0 0 0 0 0 0 0 0 0 0 0 0 0.0793489 0 0 0 0 0 0 0.00386758 0 0 0 0 0.000331097 0 0 0
816 0.305075 0 0 0 0 0 0.028658 0 0 0 0.319963 0.610344 0 0 0 0 4.40929 0.0105315 0 0 0 0.0658652 0 0 0.010519 0 0 3.52481 0 0 0 0 0 0 0 0 0 0 0 0 0 0 0.931464 0 0 0.214619 0 0.112139 0 0.0023275 0 0 0 0.0441512 0 0 0 0 0 0.346849 0 0 0 0 0.0791024 0 0 0 0 0 0.0181669 0 0 0 0 0 0 0 0 29.4514 0.030432 0 0 127.762 0 0.108703 0 0 0 0 0 0 0 0 0 0 0 0 0 0
256 0 0 0 0 0.00411282 0.0106284 3.35357 53.7165 0 0.00120089 0 18.5746 0 0 0 0.0287888 1.12728 0 0 0 0 0 0 0 0 31.8429 0 0.00665332 0.000802292 0.056289 0 0 0.0220084 0 0 15.8198 0.143942 3.52413 0 0 0 0.0103143 0 0.136192 0 0.00884911 0 0 0 0 2.16889 18.0347 0 0 5.85507 0 0.0233972 0.020774 0 0 0 0 0.35343 0.0271366 0.744388 0 0.144167 0 0 35.8777 0 0.669508 0 0.0340849 0 0 36.7575 1.17919 0 5.27269 0.0232872 0 0 10.7912 0 0 0 0 11.8667 0 0 0 9.12987 0 0 1.21432 0 0 3.39533 0
2050 0 0 0 0 0 0.759394 0 0.295568 0.0481808 0 0 0 0 0.00567718 0 1.72536 0 0 0 0 0 0 0 0.00219464 0 0 0 0 0.00116524 0 0 0 0 0.0780738 0 0 0 0 0 0 0 0 0 0 0 0.0424913 0 0 0 0 0 0.907183 0 0 0 0 0 0 0 0 0 0 0 0.000200965 0 0 4.62693 0 0 0 0 0 0 0 0 0 0 0 0 0 0 0 0 0 0 0 0 0 0 0 0 0 0 0 0 1.82126 0 0 0 0
2054 0 0 0 0 0 0 0 0 0 0 0 0 0 0 0 0 0 0 0 0 0 10.7239 0 0.180602 1.53103 0 0 0.0355222 1.16657 0 0 0 0 0 0 0 0 0 0 0 0 0 0 0 0 0 0 0 0.00699887 0 0 1.18297 0 0 0 0.191064 0 0.103483 0 0 0 0.207148 2.36609 0.172426 0 0.0634188 0 0 0.179794 0 0 0 0 0 0 6.52284 0 0 0 0 0 0 0.227876 0 0 0 0 0 0 0 0 0 0 0 0.122733 0 0 0 6.989 0.00739067
2062 0 0 0 0 0 0 0 0 0 0 0.782671 0 0 0 7.34234 0 0 0 0 0 0 0 0 0 0 0 0 0 0 0 0 0 0 0 0 0 0 0.0398023 0 0 0 0 0 0 0 0 0.9487 0 0 0 0 1.95691 0 0.281665 0 0 0 0 0.0273205 0.367475 0 1.52484 0.121739 0 0 0 0 0 0.873901 0 0 0 0 0 0 0 0.685304 0 0 0 0.298905 0 0 0 0 0.169603 0 0 0.241655 0 0 0 0 0 4.38012 0 0 0 0 0.182639
1935 0 0 0 0 0 0 0 0 0 0 0 0.146941 0 0 0.0152164 0 0.0531952 0 1.06364 0 0 0 0 0 0 0.0387207 0 0.0409757 0 0 0.000123052 0 0.000450033 0 0 0 0 0 0 0 0.0160168 0 0 0 0 0.00836515 0 0 0 0 0 0.143806 0 0 0 0 0 0 0 0 0 0 0.0982801 0.035316 0.0903324 0 0.000843506 0 0 0 0.020435 0 19.6408 0 0 0 0 0 0 0 0 0 0.0262183 0.000127662 0 0 0 0 0 0 0 0 0 0 0 0 0 0 0 0
526 0 0 0 0 0.0378975 0 0 0 0.0396616 0 0 0 0.324085 0 0 0 0.382848 0 0 0 0 0 0.0675353 0 0 0 0 0 0 0 0 0 1.04899 0.00134261 0 0.00226301 0 0 0 0 0 0 0 0.204142 0.00098628 0.889312 0 0 0 0 0 0.564199 0 0 0 0 0 0 0.190244 0 0 0 0.077586 2.24815 0.0339888 0 0.580153 0 0 0 0 0 0 0 0 0 0 1.09881 0 0 0 0 0 0 0.167797 0 0 0 0 0 0 0 0 0 0 0 0 0 0 0
2065 0 0 0 0 0 0 0 0 0 0 0 0 0.372007 0 0 0 0 0 0 0 0 0 0 0 0 0 0 0 0 0.669605 0 0 0 0 0 0 0 0 0 0 0.634952 0 0 0 0 0 0 0 0 0 0 0 0 0 0 0 0 0 0 0 0 0 1.21222 0 0 0 0.884612 0 0 0 0 4.09083 0 0 0 0 0 2.40088 0 0 0 0.326185 0 0 0 0 0 0 0 0 0 0 0 0 0 0 0 0 0 0
2067 0 0 0 0 0 0 0 0 0.162373 0 0 0 0 0 0 0 0 0 0 0 0 0 0 0 0 0 0 0 0 0 0 0 0 0 0 0 0 0 0 0 0 7.65076 0 0 0 0.209912 0 0 0.0889632 0 0 2.16027 0 0 0 0 0 0 0 0 0 0 0 0 0 0 0 0 0.532639 0 0 0 0 0 0 0 0 0 0 0 0 0 0 0 0 0 0 0 0 0 0 0 0 0 0 0 0 0 0 0
790 24.6451 0 0 0 0 0.0264883 0 0 3.77913 0 93.6935 0.0279936 0.0189214 0 0 0 0 0 0 0 0 0 0 0 0 0 0 121.722 0 0 0 0 0 0 0 0 0 0 0.0642047 0 0 0 0 0 0 0 0 0 0 0 26.7055 0 0 0 0 0 0.118803 0 0 0 0 0 0 0 0 0 0 0 0 0 0 0 0 2.32197 0 0 53.6959 0 0 0 0.0117943 0 0 0 0 0 0 0 0 0 0 0.0388328 0 0 0 0 0 0 0 0
280 0 0 0 0 0 0.0311404 0.651414 1.3494 0.88232 0.163477 0 0 2.61454 0 0 0 45.5547 0 0 0 0.156178 0 0 0 0 0 0 0 6.21738 0.0475632 0.491093 0 1.11993 0 0 0.756922 0 0.270547 0 0 1.72275 0.183883 0 3.01657 0 0 0 0 0.0169137 0 32.0927 2.71462 0 0 0 0 0 0 0 0 0.183721 0 0 0.231004 0.798249 0 7.41129 0 0 0.493225 0 0.874549 0 0.0326972 0 0.0238426 0 1.76903 0 0 0.0791687 0 0 0.596609 0 0 0 0 0 0 0 0 0 0 13.3173 0 0 0 0 0
24 0 0.120454 0 0 0 0 0 0.0446778 0 1.46034 0 5.23022 0 0 0 0.0288837 3.15301 0 0 0 0 0 0 0 0.165117 0 0 0.00013624 0 0 0 0.00303516 5.27682 0 0 0.0985063 0.340588 0.0908012 0.0321997 0.575305 0 0 0 8.12041 0 3.95031 0 0 0 0.0767597 0.679463 0 0 0 10.4048 0 0 0 0 0 0 0 0 1.6589 0 0 0 0 0.201375 0 0 0 0.195953 0 0 0 0 0 0 0 0 0 0 0 0 0 0 0 0.0476078 0.000226624 0 0 0 0 0 0.000562553 0 0 0.000238942 0
153 0 0 0 0 0.0895574 0 0 0 0 0 0 0.0732993 0 0 0 0.00641115 0 0 0 0.238656 0 0 0 0 0 0 0 0 0 0 0.920626 0 0 0 0 0 0 0 0 0 0 0 0 0 0 0 0 0 0 0 0 2.82821 0 0 0 0 0 0 0 0 0 0 0 0 0.371401 0 0 0 0 1.07239 0 0 0 0 0 17.5812 0 0 0 0 3.10546 0 0 0 0 0 0 0 0 0 0 0 0 0 0 0.00228258 0 0 0.304053 0
2076 0 0 0 0 0 0.294761 0.0152777 0 0 0 0.769167 0 0.162182 0 0 0 0 0 0 0 0 0 0 0 0 0 0 0.00194396 0 0 0 0 0.0134792 0 0 0 0 0 0 0 0 0 0 1.0588 0 0 0 0 0 0 0 0.212505 0 0 0 0 0.00451864 0 0 0 0 0 0 0 0 0 0 0 0 0 0 0 0 0 0 0 0.140332 0 0 0 0 0 0 0 0.467713 0 0.0430723 0 0 0 0 0 0 0 0 0 0 0 0 0
3229 0.138278 0 0 0 0 0 0 0 0 0 0 0 0 0 0 0 0 0 0 0 0 0 0 0 0 0 0 0 1.87627 0 0.026035 0 0 0 0 0 0 0 0 0 0 0.089433 0 0 0 0 0 0 0 0 0 0.12509 0 0 0 0 0 0 0 0 0 0 4.7943 0 0.0173454 0 0 0 0 0.00732099 0 0 0 0.00389186 0 0 0 0 0 0 46.6753 0 0 0 0 0 0.667216 0 0 0 0 0 0 0 0 0 0 0 0 0
2083 0 0 0 0.00107173 0 0.0360312 0.000386986 0 0.442276 0 0.00475598 0 68.744 0 0 0.694808 0 0 0.00035791 0 0 0 0 0 0 0 0 0.0035674 0 0.00565521 0 0 0 0 0.00429313 0 0 4.87404 0 0 0 0.0143404 0 0 0 0 0 0 0 0 0.0210409 0.0861737 0 0 0 0 0 0 0 0.0261888 0 0 184.681 0 0 0 0 0 0.0826873 0.000426078 0 0 0 0.0379483 0 0.243678 0 0 0 0 0.00148725 0 0 0 0.000481456 0 0 0 0 0 0 0 0 0 0 0 0.0003287 0 0 0
1702 0 0 0 0.291925 0 0 0 0 0 0 0 0 0 0.00921165 0 0 0 0 0 0 0 1.82022 0 0 0 0 0 0 0 0 0 0 0 0 0.176153 0 4.43215 0 0 0 0 0 16.2352 0 0 0 0.128163 0 0 0.0878468 0 0 0 0 0 0 0 0 0 0 0.000256008 3.68901 0 0 0 0 1.7747 0 0.344953 0 0 0 0 0.381861 0 0 0 0 0 1.34231 0 0 0 0 0 0 0 0 0 0 0 0 48.6172 0 0 5.09953 0 0 0 0
175 0.358961 0 0 0 0 0 2.82717 0 0 0 0 0 0 0 0 0 577.54 0 0 0 0.364388 0 0 0 0.222148 0 0 7.88632 0 0.00307633 0 0 0 0 0 0 0 1.09986 0 0 0.921539 0 0 0 0 88.7107 0 0 0 0 0 10.5243 0 0 0.893043 0 1.25839 0 0.142772 0 0 0 0.0460219 0 0 0 0 0 0 0.0963741 0.0218968 0 0 0 0 0 0 0 0 0 0 0 0 0 0 0 0.0940925 0 0 0 0 0 0 0 2.02336 0 0 0 0 0
561 0 0 0 0 0 0 0 0 1.64502 0 0 0 0 0 0 0 0 0 0 0 0 0 0 0 0 0 0 0 0.612066 0 0 0 0 0 0 0 0 0 0 0 0 0 0 0 0 170.7 0 0 0 0 6.55144 0 0 0 0 0 0 0 0 0 0 0 0 0 0.908337 0 0.555597 0 0 0 0 0 0 0 0 0.510628 0.875888 0 0 0 0 0 0 0 0.676094 0 0 0 0 0 0 0 0 0.481427 0 0 0 0 0 0
306 0 0 0 0 2.17872 0 0 0 0 0 0.698116 0 0 0 0.175577 0 0 0 0 0.0235541 0 0 0 0 0 0 0 0 0.0118345 0 0 0 0.115845 0 0 0 0 0.00429069 0 0 0.0345068 0 0 0 0 0.248226 0 0 0 0 0.117631 0.348402 0 0 0.00367596 0.00591909 0 0 0 0 0 0 0.0245112 0 0.00746389 0 1.13326 0 0 0.0152437 0 0 0 0.00580804 0 0 0 0 0 0 0.176744 0 0 0.227497 0.0691008 0 0 0 0 0.443489 0 0 0 0 0 0 0 0 3.16262 0
1206 0 0 0 0 0 0.000985584 0 0 0 0 0 0 0 0 0 0 0 0 0 0 0 0 0 0 0 0 0 0.554484 47.3074 0 0 0 0 0 0 0 0 0 0 0 0 1.50419 0 0 0 0 0 0 0 0 0 0 0 0 0 0 0 0 0 0 0 0 0 0 0 0 0 0 0 0.304741 0.380117 0 0 0 0 0.301114 0 0.837775 0 0 0 0 0 0 0 0 0 0 0 0 0 0 0 0 0 0 0 0 0 0
186 32.0427 1.71996 0 0 0 0.000686312 0 9.77732 0 0 0 0 0 0.180797 0 0 0 0 0 0 0 0 0 0 0 0 0 0 16.4765 0 0 0 0.040201 78.1374 0 0 0 0 0 0 0 0.00257487 0 0 0 0 0 0 0 0 0 1.75917 0 0 0 0 0 0 0 0 0 0 0 0.151495 0 0 0 0 75.7305 0 0 0 0 1.37598 0 0.00104618 0 0 0 0.629723 0 0 0 0 0 0 0 0 0 0 0 0 0 1.64053 0 0 0 0 0 0
591 0 0 0 0 0 0 0 0 0 0 0.00524219 0.0497587 0 0 0 0 0 0 0 0 0 0 0 0 0 0 0 0 3.05143 0 0 0 0 0 0 0 0 0.00570223 0 0 0 0 0 0 0 2.45695 0 0 1.42524 0 0.173277 0 0 0 0 0 0 0 0 0 0 0 0.290881 0.313011 0 0 0.2763 0 0 0 0 0.101981 0 0.0525627 0 0 0 0.0852964 0 0.455897 0 0 0 0 0 0 0 0 0 0 0 0 0 0.623628 0 0 0 0 0 0
594 0.000181344 0.00290188 0 0.000655547 0 0 0 0 0 0.0224133 0.0242135 0.0383736 0.0217822 0 0.000477454 0 0 0 0 0 0 0 0 0 0 0 0 0 0.069405 2.08361 1.15066 0 0.0612719 0 0 0 0 0.0965015 0 0 0 0.0124073 0 0.0385694 0 2.90068 0.0221234 0 0 0 0.10296 0.0258651 0 0 0.000712186 0 0 0 0 0 0 0 0.0742955 0 0.00213766 0 0 0 0 0 0 0 0.0699955 0.157216 0 0.0100245 0 0 0 0.00472556 0 0 0 1.42404 0 0 0.110048 0 0 0 0 0 0 0.00143218 0 0 0 0 0.183493 0
1239 0.000681586 0.161517 0 0 0 0.0383594 0 0 0 0.0246852 1.09858 0 0 0 0 0 0 0 0 0 0 0 0.00913876 0 0 0 0 0 0.182317 0 0 0 0 0 0 0 0 0 0 0 0 0 0 0 0 1.83534 0 0.0148106 0 0 0.171639 0.343528 0 0 0.0255559 0 0.481595 0 0 0 0 0 0.0107132 0 0.0876256 0 0 0 0 0.220769 0 0 0 0.191631 0 2.64754 0 0.190967 0 0 0.00280986 0.356168 0 0 0.0171934 0 0 0 0 0 0 0 0 0 0 0 0 0.480669 0.465218 0
610 0.00590744 0 0.000784138 0 0 0 0 0 0.0687924 0.028452 0 0 0.0121929 0 0 0.0182016 0 0 0 0.225103 0.0173181 0.000678809 0.00231595 0 0 0.0802387 0 0.0200061 0.484653 0 0.0193522 0 0 0 0 0.117111 0 0.00173153 0 0 0.0207961 0 0 0 0 9.161 0 0 0.942622 0 0.39477 0.248524 0 0.048641 0 0 0 0 0 0 0 0 1.12814 0.884575 0.154051 0 0 0 0.135576 0.013052 0 0 0.0143481 0 0 0.0864472 0 0.468131 0 0 0.0278814 0.0764595 0 0.624134 2.15732 0 0.672474 0.193847 0 0.0583776 0 0 0 0.0960373 0 0 0 0.157911 0.385803 0
1897 0.951598 0.00306666 0.244154 0 0 0.511034 0 0 0 0 0.725145 3.348 5.1331 2.47797 0 0 0 0 0 0 0 0 0.228222 0 0 0 0 0 0 0 0 10.5428 0 0 0.547148 0 0 0 0 0.696163 0 0 0 0.201119 0.708344 0 0 13.5434 0 0 1.26509 0.0177259 0 0 0 0.0138379 0 0 1.23753 0 0 0 20.136 0.865671 0 0 0 0 0 0.780684 0 1.43122 3.83867 0 0 0 0 0 0 0 0 0 0 4.98985 0.272867 0 0 0 0 1.92782 0 0.797208 0 0 0 0 0 0 0 0
750 0 0 0 0 0 0 0 0 0 0 0 18.2816 0 0 0 0 0 0 0 0 0 0 0 0 0 0 0 0 0 0 0 0 0 0 0 0 0 0 0 0 0 0 0 0 0 0 0 0 0 0 0 0 0 0 0 0 0 0 0 0 0 0 0 0 0 0 0 0 0 0 0 0 0 0 0 0 0 0 0 0 0 0 0 0 0 0 0 0 0 0 0 0 0 0 0 0 0 0 0 0
3712 0 0 0 0 0.113348 0 0 0.0966061 0.0615134 0 0.0478802 0.0358659 0 0 0.000821046 0 0 0 0 0 0.12491 0 0 0 0 0.541989 0 0 0 0.0260455 0 0 0 0.00306498 0.216135 0 0 0 0 0 0 0.0214586 0 0 0 0.0855233 0 0.00203574 0 0 0 0 0 0 0.599022 0 0 0 0.00271872 0 0 0 0 0.00485834 0.632836 0 0 0 0 0 0 0 0 0 0 0 0 0 0 0.0202489 0 0 0.0920113 0.315003 0 0 0.236448 0 0 0 0 0 0 0 0 0 0 0 0 0
2434 1.38289 0 0 0.673581 0.0482244 0.0367561 3.22932 0 0 0.0860853 0.000713768 0 0 0 0 0.128976 0 0 0 0 0 0 0 0 0.173141 0 0 0 0.00245933 0 0 0.350232 0 0.184238 0 5.21542 0 0.312409 0 0 0 0.373179 18.8005 0 0 0 1.08344 0 0 0.260641 0 0 0 0.0353161 0.0772363 0 0 0 0 1.782 0 0 0 0 0.0455511 0 0 0 0 0 0 0 2.30772 0.0557125 0 0 1.15506 0 0 0 0.000549879 0.294063 0 0 0 11.1309 0 0 0.0551939 0.381624 1.29684 0 0 0 0.00435525 0 0 0 0 0
4878 0 0 0 0 0 0 0 0 0 0 0 0 0 0 0 0 0.00455335 0 0 0.416516 0 0 0 0 0 0.103507 0 0 0.3254 0 0 0 0 0 0 0 0 0 0 0 0.504907 0 0 0 0 0 0 0 0 0 0 0 0 0 0 0 0 0 0 0 0 0 0 0 0 0 0 0 0 0.753953 0 0 0 0 0 1.16499 0 0 0 0.1406 0.0549591 0 0 1.45011 0 0 0.22084 0 0.155021 0 0 0 0 0 0 0 0.0139527 0 0 0
659 0 0 0 0 0 0 0 0 0 0 0 0 0 0 0 0.0834938 3.85001 0 0 0 0 0 0 0 0 0 0 0 0 0 0 0 0 0 0 0 0 0 0 0 0.00126486 0 0 0 0 0 0 0 0 0 0 0 0 0 0 0 0 0 0 0 0 0 0 0 0 0 0 0 0 0 0 0.0644678 0.015134 0 0 0 0 0 0 0 0 0 0.151648 0 0 0 0 0 0 0 0 0 0 0 0 0 0 0 0 0
787 0 0.50534 0 0 0 0 0 0 0 0 0.520028 1.4782 0 0 0 0 0.00560829 0.0525743 0 2.77881 0 0 0 0 0 0.268079 0 0 0.526323 0.47538 0 0.597284 0.260458 0 0 1.75725 0 1.06031 0 0 0 0.507373 0.0149744 0 0 0.400992 0 0 0.0487937 0 0 0 0 0 0.918348 0 0 0 0.694576 0 0.229224 0 0 0 0 0 0 0 0 0 0 0.0250677 0.166674 0.329196 0 0 2.01223 0.242501 0 0.309814 0.721322 0 0 0.79805 0 0 0 0 0 0 0 0.271738 0.0206733 0 0 0 0 0 0.485687 0
4759 0 0.000315599 0 0 0 0 0 0 0 0 0 0 0 0.106752 0.184544 0 0 0 0 0 1.88295 0 0 0 0 0 0.020157 0 0 0 0 0.0210202 0 0 43.7689 0 0 0 0 0.120986 0 0 9.87285 0 0 0 4.44606 1.6197 0 0.119154 0 0 0 0 0 0 0 0 0 3.53281 0 1.32908 0 0 0 0 0 0 0 0 0.112607 0.00356643 0 0 0 0 0 0 0 0 0 0 0 0 0 0 0 1.73534 0.224552 0 0 0 0.216351 0 0 0 0 0 0 1.32727
411 0 0.320258 0 0 0 0 0 0.0542962 0 0 0.00101619 0 0 0 0 0 0 0 0 0 0 0 0 0 0 0 0 0 0 0 0 0 0 0.205793 0 0 0 0.0409762 0.0242924 0 0 0.208359 0 0 0 0 0 0 0.348605 0 0.000302363 0 0 0 0 0 0 0 0 0 0 0 0.0938838 0.911582 0 0 1.05096 0 0 0 0.0301627 0.0171163 0 0.364027 0 0.0214886 0 0 0 0 0 0 0 0.446562 0 0 0 0 0 0 0 0 0 0 0 0 0 0 0.0574723 0
412 0 0 0.0786454 0 0 0 0.140661 0.369255 0 2.99715 0 0 0.467059 0 0 1.50895 1.19056 0.655277 8.31623 0 0.340811 0.0266912 0.144117 0 0 0 3.0367 0 0 0 0 0 0 135.221 0.252618 1.45822 1.23976 0 0.487266 4.11451 0 0 0.696241 0 0 0 0 0.562569 0 0 0 0 0 0.142108 0.343147 1.10885 0 0 0.234339 0.058395 0 0 0 0 0 0.977187 0.136233 2.2786 0 0 0 0 0 0 0 0 0 1.20452 0.200441 0 0 0 0.794988 17.0993 0 0 0 1.22441 0 0.543961 1.37529 0 0.555183 0 0 0.00154297 1.30312 0 0.363836 1.01902
798 0 0 0.418674 0 0 0.609346 0 0 0 0 0 0 0 0 0 3.40963 0 0 0 0 0 0 2.30324 0 0 0 0 0 7.83798 0 0 0 9.29378 0 0 0 0 0.0116448 0 0 0 0 0 0 0 0.0121261 0 0.0250783 0 0 0 30.207 0 0 0 0 2.00915 0 0 0 0 0 0 0 2.19235 2.49013 0 0 0.320113 1.03747 0 0 0 0.371159 0 0.107492 0 0 0 0.644105 0 0 6.61874 0 0.0973958 6.01728 3.57901 0 0 0 0 0.249407 0 0 0.167681 0 0 0 0 0
1829 0 0 0.157713 0 0 0.14497 0 0 0 0 0 0 0 0 0 0 36.6186 0 0 0 0 0 0.123386 0.257944 0 0 0 0.261602 0.00825177 0.0925008 0 0 1.06136 0 0 0 0 0 0 0 0 0 0 0.108297 0 0 0.200736 0 0 0 0 0 0 0 0 0 0 0 0.519637 0 0 0 0.159507 0 0.00569804 0 0 0 0 0 0 0 0.492019 0 0 0 0 0 0 0 0 1.69188 0 0 0.42564 0 0.150783 0 0 0.0577162 0 0 0 0.0614674 0 0 0 0 0 0
1064 0 0 0 0 0 0 0 0 0 0 0 0 0 0 0 0 0.347737 0 0 0 0 0 0 0 0 0 0 0 0 0 0 0 0 0 0 0 0 0 0 0 0 0 0 0 0 0 0 0 0 0 0 0 0 0 0 0 0 0 0 0 0 0 0 0 0 0 0 0 0 0 0 0 0 0 0 0 0 0 0 0 0 0 0 7.48852 0 0 0 0 0 0 0 0 0 0 0 0 0 0 0 0
42 0 0.000205304 0 0 0 0 0 4.93194 4.29267 0.00359371 0 0.000139553 0.000876376 0 0 0.000246404 0.567148 0.0201507 0 0 0 0 0.000216759 0 0 0.530341 0 0.939044 5.00287 4.83411 0.739951 0 2.44826 0 0 0 0.472497 0.146597 0 0 0 0 0.139614 0.00238635 0 0.000295987 0 0 0 0 0 0.802452 0 3.40802 0 1.45138 0.0905282 0.0397692 0 0 0 0 0 0 0.201867 0 0.00258298 0 0 0 0 0 0 0.253049 0.215191 0.0545812 0 0 0 0 0 0 5.6913 0 0 0 0 2.0796 0.936002 0 0 0 0 0 6.01754 0 0 0 0 0
4529 0 0 0 0 0 0 0 0 0.116356 0 0 0 0 0 0 0.0540408 0 0 0 0 0 0 0 0 0 0.0187054 0 0 0.00103832 0 0 0 0 0 0 0 0 0 0 0 0 0 0 0 0 0.0192296 0 0 0 0.000558065 0 0 0 0.0227081 0 0 0 0 0 0 0 0 0 0.0140208 0.00601204 0 0 0 0 0.0227461 0 0 0 0 0 0 0 0 0 0 0 0 0 0.826746 0 0 0 0 0 0 0 0 0 0 0 0.000120551 0 0 0 0
2873 0 0 0.0159237 0 0 1.09068 0 0 0 0 0.533592 0 0.0282271 0 0 1.96661 0 0 0 0 0.0941482 0 0.000108823 0 0 0.11682 0.0588205 1.17582 0 0 0.000217545 2.25512 0.577741 0.231559 0 0 0 0.235589 0 0 0 0.400539 0 0 0 0 0 0.0766054 1.17786 1.40645 0.105907 0.000254439 0 0.000607342 0 0 0.00497765 0 0 0 0 0 1.14563 0 0.0443851 0.00393572 0 0 0 0.497357 0 0 1.29728 0 0 0 0.537298 0 0.00171771 0 0 0.000309647 0 4.88291 0 0 0 0.0143551 0 0 0 0 0 0.45032 0 0 0.000893277 0 0.699209 0
2875 42.3358 0 0 0.0750131 0 0 0.0970625 0 0 0 0 0 0 0 0.0975848 0 0 0.231065 0 0 0 11.0672 0 0 1.52633 0 0 0 0 0 0 0 0.997398 0 0 0.191389 0 0 0 0 0 0 0.518962 0 0.000972165 0 0 0 0 1.0918 0 0 0 0 0 0.0125482 0 0 0 0 0 0 0 0 0 0 0 0.133826 0 0 0 0.00304147 0.353948 0.0237751 0 0.0529934 0.00653308 0.570621 0.000434964 0 0 0 53.1629 0 0 6.58205 0.0331358 0.179062 0 4.58674 0.714288 0 0.156401 0 0 0 0 0 0 0
315 0 0 0 0 0 0 0 0 0 0 0 0 0 0 0 0 0 0 0 0 0 0 0 0 0 0 0 0.0144245 0 0 0 0 0 0 0 0 0 0 0 0 0 0 0 0 0 0 0 0 0 0 0 0 0 0 0 0 0 0 0 0 0 0 0 0 0 0 0 0 0 0 0 0 0 0 0 0 0 0 0 33.5086 0 0 0 0.9649 0 0 0 0 0 0 0 0 0 0 0 0 0 0 0 0
3776 0 0 0 0 0 0 0 0 0 0 0 0 0 0 0 0 14.5795 0 0 0 0 0 0 0 0 0 0 0 0 0 0 0 0 0 0 0 0 0 0 0 0 0.231652 0 0.00475192 0 0 0 0 0 0 0 0 0 0 0 0 1.13762 0 0 0 0 0 0.0469825 0 0 0 0 0 0 0 0 0 0 0 0 0 0 0 0 0 0 0 0 0.0361246 0 0 0.311374 0 0 0 0 0 0 0 0 0 0 0 0.00703725 0
579 0.217385 0 0 0 0 0 0 0 0 0 0 0.506007 0.0215239 0 0 0.0412155 0 0 0 0.0225033 0 0 0 0 0 0.349863 0 0 0.625876 0.192443 0 0.127485 0 0 0 0 0 0 0 0 0 0 0 0 0 0.118289 0 0.0639456 0 0 0.142343 0.081571 0 0 0.07106 0 0.171838 0 0 0 0 0 0.099244 0 0.146358 0 0 0 0 0 0 0 0 0 0 0 0.0945943 0 0 0 0 0 0.0537624 0.437082 0 0 0 0 0 0 0 0.00375957 0 0.106291 0 0 0 0 0.1097 0
1748 0.218864 0 0.00411555 0 0 0.184076 0 1.21565 0 0 2.43378 0 0 0 0 0.614608 177.904 0 0 0 0 0 0 0 0 0.000425503 0 0 0 0.40509 0 0 0.497566 0.0478336 0 0.01831 0 0.0154684 0 0 0 0 2.28267 2.08892 0.000311218 0.0575433 0 0 0 0 0.867077 0.000300018 0.0181862 1.43765 0.0045952 0 0.882967 0.0891363 0 0 0 0 0.443105 0 0.00193055 0.000514138 0 0 0 0.87029 0 0.00302256 0 0 0 0.559717 0.0159165 0 0 0 1.52041 0 0 0.00438152 0 0 0 0.00136588 0 0.00140195 0 0 7.84412 0 0 0 0 0 0 0
1878 0 0 0 0 0 0.236379 0.00343022 0 0 0.570583 0 0 0 0 0 0 0 0 0 0 0 0 0 0 0 0 0 0 0 0 0.645874 0 0.0978479 0 0 0 0 0 0 0 0 0 0 0 0 1.42072 0 0 0 0 0.0876428 0 0 0 0 0 0 0 0 0 0 0 0 0.0669399 0 0 0.13485 0 0 0 0 0 0 0 0 1.17607 0 0 0 0.143223 0 0 0 0.00162193 0.148334 0 0 0 0 0 0 0 0 0 0 0 0 0 0 0
4320 0.0269535 0 0 0 0 0 0 0 0 0 0 0 0.00624574 0 0 0 0.0141914 0 0 0 0 0 0.00647481 0 0 0 0 0.0259844 0.225491 0 0.202241 0 0.398138 0 0 0 0 0 0 0 0 0 0 0.00936809 0 0 0 0 0 0 0 0 0 0 0 0 0 0 0 0.0234172 0 0 0.0326039 0 0 0 0.0356758 0 0 0 0 0 0 0.00434474 0 0.0137436 0 0 0 0 0.010151 0 0 1.15471 0.0204935 0 0 0 0 0 0 0 0 0 0 0 0 0 0 0
3809 0 0 0 0 0 0 0 0.213761 0 0 0 0 0 0 0 0 0 0 0 0 0 0 0 0 0 0.000436234 0 0 0 0.254102 0 0 0 0 0 0 0 0 0 0 0 0 0 0 0 0 0 0 0 0 0 0.401454 0 0 0 0.0718694 0 0 0 0 0 0 0 0 0 0 0 0 0 0.00560446 0 0 0 0 0 0 0 0.000550669 0 0 0 0 0 0.553287 0 0 1.98771 0 0 0 0 0 0 0.00967616 0.087087 0 0 0 0 0
613 11.3881 0.256184 0 0 0 0 0 0.360094 0 0 0 2.62633 0 0.00138646 0 1.08641 0 0.269425 0 0 0 0 0.000301606 0.000219183 0 0.0674043 0 0 0.427927 0 0 0 0 0 0 0 0 0 0 0 0 0 0 0 0 0 0 0 0 0 0 0 0 0.382982 0 0 0 0 0 0 0.0282597 0 0 0.0346279 0 0 1.79036 0 0 0.0107344 0.00533205 0 0 0 0 0.00125477 0 0 0.57009 0 0 0 2.06394 52.4361 0.139033 0 0 0 0 0.360257 0.000605787 0 0.00556912 0.777906 0 0 0 0 0.779581 0
4456 0 0 0 0 0 0 0 0 0 0 0 0 0 0 0 0.334596 0.324078 0 0 0 0 0 0 0 0 0.531151 0 0.0747959 0.636065 0 0 0 0 0 0 0 0 0 0 0 0.530729 0 0 0 0 0.0821916 0 0 0 0 0 0.444949 0 0 0 0 0 0 0 0 0.0176039 0 0 0 0 0 0.0168724 0 0.00128477 0.497272 0.0950524 0 0 0 0 0 0.536882 0 0 0 0 0 0.630719 1.17451 0.0664392 0 0 0 0 0 0 0 0 0 0 0 0 0 0 0
386 0 0 0 0 1.57779 0 0 0 0 0 0 0 0 0 0 0 0 0 0 0 0 0 0 0 0 0 0 0 0 0 0 0 0 0 0 0 0 0 0 0 0 0 0 0 0 0 0 0 0 0 0 0 0 0 0 0 0 0 0 0 0 0 0 0 0 0 0 0 0 0 0 0 0 0 0 0 0 0 0 0 0 0 0 0 0 0 0 0 0 0 0 0 0 0 0 0 0 0 0 0
388 0 0 0 0 0.353161 0 0 0 0 0 0 0 0 0 0 0 0 0.000190131 0 0 0 0 0 0.0141867 0 0 0 0 0 0 0 0 0 0 0 0 0 0 0 0 0 0 0 0 0 0 0 0 0 0 0 0 0 0 0 0.0296182 0 0 0 0 0 0 0 0 0 0 0 0 0 0 0 0 0 0 0 0 0 0 0 0 0 0 0 0 0 0 0 0 0 0 0 0 0 0 0 0 0 0 0 0
391 0 0 0 0 0.580716 0 0 0 0 0 0 0.0238875 0 0 0 0 0 0 0 0 0 0 0 0 0 0 0 0 0 0 0 0 0 0 0 0 0 0 0 0 0 0 0 0 0 0 0 0 0 0 0 0.349751 0 0 0 0 0 0 0 0 0 0 0 0 0 0 0 0 0 0 0 0 0 0 0 0 0 0 0 0 0 0 0 0 0 0 0 0 0 0 0 0 0 0 0 0 0 0 0 0
3213 0 0 0 0 0.092983 0 0 0 0 0 0 0 0 0 0 0 0 0 0.00142117 0 0 0 0 0 0 0 0 0 0 0 0 0 0 0 0 0 0 0 0 0 0 0 0 0 0 0 0 0 0 0 0 0 0 0 0 0 0 0 0 0 0 0 0 0 0 0 0 0 0 0 0 0 0 0.00133004 0 0 0 0 0 0 0 0 0 0 0 0 0 0 0 0 0 0 0 0 0 0 0 0 0 0
402 0 0 0 0 0 0 0 0 0 0 0 0 0 0 0 0 0 1.61475 0.344843 0 0 0 0 0 0 0 0 0 0 0 0 0 0 0 0 0 0 0 0 0 0 0 0 0 0 0 0 0 0 0 0 0 0 0 0 0 0 0 0 0 0 0 0 0 0 0 0 0 0 0 0 0 0 0 0 0 0 0 0 0 0 0 0.482644 0 0 0 0 0 0 0 0 0 0 0 0 0 0 0 0 0
404 0 0 0 0 0 0 0 0 0 0 0 0 0 0 0 0 0 0 0.957982 0 0 0 0 0 0 0 0 0 0 0 0 0 0 0 0 0 0 0 0 0 0 0 0 0 0 0 0 0 0 0 0 0 0 0 0 0 0 0 0 0 0 0 0 0 0 0 0 0 0 0 0 0 0 0.0994666 0 0 0 0 0 0 0 0 0 0 0 0 0 0 0 0 0 0 0 0 0 0 0 0 0 0
407 0 0 0 0 0.165838 0 0 0 0 0 0 0 0 0 0 0 0 0 0 0 0 0 0 0 0 0 0 0 0 0 0 0 0 0 0 0 0 0 0 0 0 0 0 0 0 0 0 0 0 0 0 0 0 0 0 0 0 0 0 0 0 0 0 0 0 0 0 0 0 0 0 0 0 0.0163188 0 0 0 0 0 0 0 0 0 0 0 0 0 0 0 0 0 0 0 0 0 0 0 0 0 0
410 0 0 0 0 0.733826 0 0 0 0 0 0 0 0 0.292477 0 0 0 68.6466 0 0 0 0 0 0 0 0 0 0 0 0 0 0 0 0 0 0 0 0 0 0 0 0 0 0 0 0 0 0 0 0 0 0 0 0 0 0 0 0.998062 0 0 0 0 0 0 0 0 0 0 0 0 0 0 0 0 0 0 0 0 0 0 0 0 0 0 0 0 0 0 0 0 0 0 0 0 0 0 0 0 0 0
413 0 0 0 0 0 0 0 0 0 0 0 0 0 0 0 0 0 87.8022 81.575 0 0 0 0 0 0 0 0 0 0 0 0 0 0 0 0 0 0 0 0 0 0 0 0 0 0 0 0 0 0 0 0 0 0 0 0 0 0 0 0 0 0 0 0 0 0 0 0 0 0 0 0 0 0 0 0 0 0 0 0 0 0 0 0 0 0 0 0 0 0 0 0 0 0 0 0 0 0 0 0 0
414 0 0 0 0 3.0785 0 0 0 0 0 0 0 0 0 0 0 0 0 0.00235313 0 0 0 0 0 0 0 0 0 0 0 0 0 0 0 0 0 0 0 0 0 0 0 0 0 0 0 0 0 0 0 0 0 0 0 0 0 0 0 0 0 0 0 0 0 0 0 0 0 0 0 0 0 0 0 0 0 0 0 0 0 0 0 0 0 0 0 0 0 0 0 0 0 0 0 0 0 0 0 0 0
419 0 0 0 0 0.176598 0 0 0 0 0 0 0 0 0 0 0 0 0 0 0 0 0 0 0 0 0 0 0 0 0 0 0 0 0 0 0 0 0 0 0 0 0 0 0 0 0 0 0 0 0 0 0 0 0 0 0 0 0 0 0 0 0 0 0 0 0 0 0 0 0 0 0 0 0 0 0 0 0 0 0 0 0 0 0 0 0 0 0 0 0 0 0 0 0 0 0 0 0 0 0
421 0 0 0 0 0 0 0 0 0 0 0 0 0 0 0 0 0 0.327381 0 0 0 0 0 0 0 0 0 0 0 0 0 0 0 0 0 0 0 0 0 0 0 0 0 0 0 0 0 0 0 0 0 0 0 0 0 0 0 0 0 0 0 0 0 0 0 0 0 0 0 0 0 0 0 0 0 0 0 0 0 0 0 0 0 0 0 0 0 0 0 0 0 0 0 0 0 0 0 0 0 0
424 0 0 0 0 0.579201 0 0 0 0 0 0 0 0 0 0 0 0 0 0.378393 0 0 0 0 0 0 0 0 0 0 0 0 0 0 0 0 0 0 0 0 0 0 0 0 0 0 0 0 0 0 0 0 0 0 0 0 0 0 0 0 0 0 0 0 0 0 0 0 0 0 0 0 0 0 0 0 0 0 0 0 0 0 0 0 0 0 0 0 0 0 0 0 0 0 0 0 0 0 0 0 0
428 0 0 0 0 2.62778 0.00280716 0 0 0 0 0 0 0 0 0 0 0 0 0 0 0 0 0 0 0 0 0 0 0 0 0 0 0 0 0 0 0 0 0 0 0 0 0 0 0 0 0 0 0 0 0 0 0 0 0 0 0 0 0 0 0 0 0 0 0 0 0 0 0 0 0 0 0 0 0 0 0 0 0 0 0 0 0 0 0.0554609 0 0 0 0 0 0 0 0 0 0 0 0 0 0 0
430 0 0 0 0 0 0 0 0 0 0 0 0 0 0 0 0 0 78.1355 96.1805 0 0 0 0 0 0 0 0 0 0 0 0 0 0 0 0 0 0 0 0 0 0 0 0 0 0 0 0 0 0 0 0 0 0 0 0 0 0 75.4143 0 0 0 0 0 0 0 0 0 0 0 0 0 0 0 0 0 0 0 0 0 0 0 0 0 0 0 0 0 0 0 0 0 0 0 0 0 0 0 0 0 0
436 0 0 0 0 0 0 0 0 0 0 0.43544 0 0 0 0 0 0 0 0 0 0 0 0 0.0672306 0 0 0 0.173221 0 0 0 0 0 0 0 0 0 0 0 0 0 0 0 0 0 0 0 0.274634 0 0 0 0 0 0 0 0.574591 0 0.412801 0 0 0 0 0.499231 0 0 0 0 0 0 0 0 0 0 0.231735 0 0.505054 0 0 0 0 0.662242 0 0.935086 0 0 0 0 0.106934 0 0 0 0 0 0 0 0 0 0 0 0
446 0 0 0 0 0.136363 0 0 0 0 0 0 0 0 0 0 0 0 0.0276074 0 0 0 0 0 0 0 0 0 0 0 0 0 0 0 0 0 0 0 0 0 0 0 0 0 0 0 0 0 0 0 0 0 0 0 0 0 0 0 0 0 0 0 0 0 0 0 0 0 0 0 0 0 0 0 0 0 0 0 0 0 0 0 0 0 0 0 0 0 0 0 0 0 0 0 0 0 0 0 0 0 0
447 0 0 0 0 2.57846 0 0 0 0 0 0 0 0 0 0 0 0 0.385651 3.01665 0 0 0 0 0 0 0 0 0 0 0 0 0 0 0 0 0 0 0 0 0 0 0 0 0 0 0 0 0 0 0 0 0 0 0 0 0 0 0 0 0 0 0 0 0 0 0 0 0 0 0 0 0 0 0 0 0 0 0 0 0 0 0 0 0 0 0 0 0 0 0 0 0 0 0 0 0 0 0 0 0
448 0 0 0 0 1.64915 0 0 0 0 0 0 0 0 0 0 0 0 0 0 0 0 0 0 0 0 0 0 0 0 0 0 0 0 0 0 0 0 0 0 0 0 0 0 0 0 0 0 0 0 0 0 0 0 0 0 0 0 0.99979 0 0 0 0 0 0 0 0 0 0 0 0 0 0 0 0 0 0 0 0 0 0 0 0 0 0 0 0 0 0 0 0 0 0 0 0 0 0 0 0 0 0
452 0 0 0 0 0.368558 0 0 0 0 0 0 0 0 0 0 0 0 0.0730396 0 0 0 0 0 0 0 0 0 0 0 0 0 0 0 0 0 0 0 0 0 0 0 0 0 0 0 0 0 0 0 0 0 0 0 0 0 0 0 0 0 0 0 0 0 0 0 0 0 0 0 0 0 0 0 0 0 0 0 0 0 0 0 0 0 0 0 0 0 0 0 0 0 0 0 0 0 0 0 0 0 0
453 0 0 0 0 0.0167161 0 0 0 0 0 0 0 0 0 0 0 0 0.0930755 0 0 0 0 0 0 0 0 0 0 0 0 0 0 0 0 0 0 0 0 0 0 0 0 0 0 0 0 0 0 0 0 0 0 0 0 0 0 0 0 0 0 0 0 0 0 0 0 0 0 0 0 0 0 0 0 0 0 0 0 0 0 0 0 0 0 0 0 0 0 0 0 0 0 0 0 0 0 0 0 0 0
197 0 0 0.00190605 0 11.1278 0 4.79838 0 0 0 15.8485 0 0 922.312 0 0 0 0.0145259 0.00357718 0 0 0 0.0497164 126.773 0 0 0 0 0 0 0 0 0 0.00785781 0 0 6.55566 0 0.000615753 0 1.95835 0 0.00107069 0 0 0 0 0 0 0.0108355 0 0.00170588 0 0 0 76.3438 0 0 0.000911109 0 0 2.72756 0.0162476 0 0 0 0 0 0.00300586 0 0 0 0 0 0 782.863 0 0.0227341 0.41574 0 0 0 0.000778159 0 0.405667 0 0 0.420999 0 0.0125314 0 0 0 0 84.2841 0 0.57994 0 0 0
457 0 0 0 0 1.0173 0 0 0 0 0 0 0 0 0 0 0 0 0 0 0 0 0 0 0 0 0 0 0 0 0 0 0 0 0 0 0 0 0 0 0 0 0 0 0 0 0 0 0 0 0 0 0 0 0 0 0 0 0.687074 0 0 0 0 0 0 0 0 0 0 0 0 0 0 0 0 0 0 0 0 0 0 0 0 0 0 0 0 0 0 0 0 0 0 0 0 0 0 0 0 0 0
459 0 0 0 0 0.164927 0 0 0 0 0 0 0 0 0.000267298 0 0 0.163923 0 0 0 0 0 0 0 0 0 0 0 0 0 0 0 0 0 0 0 0 0 0 0 0 0 0 0 0 0 0 0 0 0 0 0 0 0 0 0 0 0 0 0 0 0 0 0 0 0 0 0 0 0 0 0 0 0 0 0 0 0 0 0 0 0 0 0 0 0 0 0 0 0 0 0 0 0 0 0 0 0 0 0
461 0 0 0 0 0.403393 0 0 0 0.0059801 0 0 0 0 0.0721579 0 0 0 0.43027 0 0 0.0190072 0 0 0 0 0 0 0 0 0 0 0 0 0 0 0 0.0477324 0 0 0 0 0 0 0 0 0 0 0.131859 0 0 0 0 0 0 0.00980717 0 0 0 0 0 0 0 0.000248733 0 0 0 0 0 0.00341742 0 0 0 0 0 0 0 0 0 0 0 0.000502861 0 0 0 0 0.0311062 0.00036789 0.00198054 2.22588 0 0 0 0 0 0.0488249 0 0 0 0 0
462 0.944653 0 0 0 0.507013 0 5.92728 0 0.350061 0.484955 0 0 0 0.113719 0.00211628 0 0 0.0138717 0 0.0566509 0.569737 0 0 0.0351759 0 0 2.5874 0 0 0 0 0.081008 0 0 0 0 0.213702 0 0 3.54795 0 0.354977 3.74401 0 0 0 0 0 0 0 0 0 0 0 0 0 0 0 0 0.179521 0 0 0 0 0 0 0 0 0 0 0.453107 0 0 0 0 0 0 0 0 0.0495017 0 0 0 0.0942515 0 0.270228 0 0 31.7003 0 0 0 0 0 1.19891 0 0 0 0.194873 0
463 0 0 0 0 0.710778 0 0 0 0 0 0 0 0 0 0 0 0 0 0 0 0 0 0 0 0 0 0 0 0 0 0 0 0 0 0 0 0 0 0 0 0 0 0 0 0 0 0 0 0 0 0 0 0 0 0 0 0 0 0 0 0 0 0 0 0 0 0 0 0 0 0 0 0 0 0 0 0 0 0 0 0 0 0 0 0 0 0 0 0 0 0 0 0 0 0 0 0 0 0 0
464 0 0 0 0 0.127331 0 0 0 0 0 0 0 0 0 0 0 0 0.161293 0.0197893 0 0 0 0 0 0 0 0 0 0 0 0 0 0 0.00834543 0 0 0 0 0 0 0 0 0 0.00322554 0 0 0 0 0 0 0 0 0 0 0 0 0 0.0633792 0 0 0 0 0 0 0 0 0 0 0 0 0 0 0 0 0 0 0 0 0 0 0 0 0 0 0.00365472 0 0 0 0 0 0 0 0 0 0 0 0 0 0 0
466 0 0 0 0 0 0 0 0 0 0 0 0 0 0 0 0 0 0.240823 0 0 0 0 0 0 0 0 0 0 0.334044 0 0 0 0 0 0 0 0 0 0 0 0 0 0 0 0 0 0 0 0 0 0 0 0 0 0 0 0 0 0 0 0 0 0 0 0 0 0 0 0 0 0 0 0 0 0 0 0 0 0 0 0 0 0 0 0 0 0 0 0.352949 0 0 0 0 0.102895 0 0 0 0 0 0
468 0 0 0 0 0.00552734 0 0 0 0 0 0 0 0 0 0 0 0 0.342622 0 0 0 0 0 0 0 0 0 0 0 0 0 0 0 0 0 0 0 0 0 0 0 0 0 0 0 0 0 0 0 0 0 0 0 0 0 0 0 0.00658049 0 0 0 0 0 0 0 0 0 0 0 0 0 0 0 0 0 0 0 0 0 0 0 0 0 0 0 0 0 0 0 0 0 0 0 0 0 0 0 0 0 0
469 0 0 0 0 0 0 0 0 0 0 0 0 0 0 0 0 0 0.254208 0 0 0 0 0 0 0 0 0 0 0 0 0 0 0 0 0 0 0 0 0 0 0 0 0 0 0 0 0 0 0 0 0 0 0 0 0 0 0 0 0 0 0 0 0 0 0 0 0 0 0 0 0 0 0 0 0 0 0 0 0 0 0 0 0 0 0 0 0 0 0 0 0 0 0 0 0 0 0 0 0 0
344 0 0 0 0 0 0 0 0 0 0 0 0 0 0 0 0 0 79.1461 80.4256 0 0 0 0 0 0 0 0 0 0 0 0 0 0 0 0 0 0 0 0 0 0 0 0 0 0 0 0 0 0 0 0 0 0 0 0 0 0 82.2743 0 0 0 0 0 0 0 0 0 0 0 0 0 0 0 0 0 0 0 0 0 0 0 0 0 0 0 0 0 0 0 0 0 0 0 0 0 0 0 0 0 0
346 0.236681 0 0 0 0.0288069 0.36695 0 0 0 0 0.235914 0 0 0 0 0 0.111847 0 0.00511241 0 0 0 0 0 0 0 0 0.994699 0 0 0 0 0 0 0 0.344862 0 0 0 0 0 0 0 0 0 0 0 0.0766498 0 0 0 0 0 0 0 0 0.336175 0.00108156 0 0 0 0 0.000813802 0 0 0 0 0 0 0 0 0 0 0.078114 0 0 0 0 0 0 0 0 0 1.12454 0 0 0 0 0 0 0 0 0 0 0 0 0 0 0.325791 0
347 0 0 0 0 0.144079 0 0 0 0 0 0 0 0 0 0 0 0.031302 0 0 0 0 0 0 0 0 0 0 0 0 0 0 0 0 0.0697259 0 0 0 0 0 0 0 0 0 0 0 0 0 0 0 0 0 0 0 0 0 0 0 0 0 0 0 0 0 0 0 0 0 0 0 0 0 0 0 0.00068468 0 0 0 0 0 0 0 0 0 0 0.00877108 0 0 0 0 0 0 0 0 0 0 0 0 0 0 0
349 0 0 0 0 0 0 0 0 0 0 0 0 0 0 0 0 0 0.607492 0 0 0 0 0 0 0 0 0 0 0 0 0 0 0 0 0 0 0 0 0 0 0 0 0 0 0 0 0 0 0 0 0 0 0 0 0 0 0 0 0 0 0 0 0 0 0 0 0 0 0 0 0 0 0 0 0 0 0 0 0 0 0 0 0 0 0 0 0 0 0 0 0 0 0 0 0 0 0 0 0 0
353 0 0 0 0 0 0 0 0 0 0 0 0 0 0 0 0 0 0 0 0 0 0 0 0 0 0 0 0 0 0 0 0 0 0 0 0 0 0 0 0 0 0 0 0 0 0 0 0 0 0 0 0 0 0 0 0 0 0 0 0 0 0 0 0 0 0 0 0 0 0 0 0 0 0.617912 0 0 0 0 0 0 0 0 0 0 0 0 0 0 0 0 0 0 0 0 0 0 0 0 0 0
481 0 0 0 0 0.628503 0 0 0 0 0 0 0 0 0 0 0 0 0 0.368132 0 0 0 0 0 0 0 0 0 0 0 0 0 0 0 0 0 0 0 0 0 0 0 0 0 0 0 0 0 0 0 0 0 0 0 0 0 0 0 0 0 0 0 0 0 0 0 0 0 0 0 0 0 0 0 0 0 0 0 0 0 0 0 0 0 0 0 0 0 0 0 0 0 0 0 0 0 0 0 0 0
355 0 0 0 0 0 0 0 0 0 0 0 0 0 0 0 0.000761273 0 2.04312 0 0 0 0 0 0 0 0 0 0 0.109569 0.173097 0 0 0 0 0 0 0 0 0 0 0 0 0 0 0 0 0 0 0 0 0 0.000570371 0 0 0 0 0 0 0 0 0.0498407 0 0 0 0 0 0.000624025 0 0 0 0 0 0 0 0 0 0 0 0 0 0 0 0 0 0 0 0 0 0 0 0 0.0723532 0 0.000114559 0 0 0 0 0 0
356 0 0 0 0 0.084907 0 0 0 0 0 0 0 0 0 0 0 0 0.946552 0.62977 0 0 0 0 0 0 0 0 0 0 0 0 0 0 0 0 0 0 0 0 0 0 0 0 0.000164324 0 0 0 0 0 0 0 0 0 0 0 0 0 0.0390509 0 0 0 0 0 0 0 0 0 0 0 0 0 0 0 0 0 0 0 0 0 0 0 0 0 0 0.00342939 0 0 0 0 0 0 0 0 0 0 0 0 0 0 0
357 0 0 0 0 0 0 0 0 0 0 0 0 0 0 0 0 0 0.144047 0 0 0 0 0 0 0 0 0 0 0 0 0 0 0 0 0 0 0 0 0 0 0 0 0 0 0 0 0 0 0 0 0 0 0 0 0 0 0 0.00563529 0 0 0 0 0 0 0 0 0 0 0 0 0 0 0 0 0 0 0 0 0 0 0 0 0 0 0 0 0 0 0 0 0 0 0 0 0 0 0 0 0 0
483 0 0 0 0 0 0 0 0 0 0 0 0.088644 0.000688894 0.00100637 0 0.0959968 0 2.63936 0 0 0 0 0 0 0 0 0 0 0 0 0 0.00593522 0.00160879 0 0 0 0 0 0 0 0 0 0 0 0 0 0 0 0 0 0.0499736 0 0 0 0 0 0 0 0 0 0 0 0 0 0 0 0.0126423 0 0 0 0 0.0261178 0 0 0 0 0 0 0 0 0 0 0 0 0.00721067 0 0 0 0 0 0 0 0 0 0 0 0 0 0 0
359 0 0 0 0 0.0533794 0 0 0 0 0 0 0 0 0 0 0 0 0.145368 0 0 0 0 0 0 0 0 0 0 0 0 0 0 0 0 0 0 0 0 0 0 0 0 0 0 0 0 0 0 0 0 0 0 0 0 0 0 0 0 0 0 0 0 0 0 0 0 0 0 0 0 0 0 0 0 0 0 0 0 0 0 0 0 0 0 0 0 0 0 0 0 0 0 0 0 0 0 0 0 0 0
361 0 0 0 0 0 0 0.47617 0 0 0.17371 0 0.203399 0 0 0 0 0 1.76217 0.0909089 0 0 0 0 0 0 0 0 0 0 0 0 0 0 0 0 0 0 0 0 0 0 0 0 0 0 3.97821 0 0 0 0 0 0 0 0 0 0 0 0 0 0 0 0 0 0 0 0 0.285587 0 0 0 0 0 0 0 0 0 0 0 0 0 0 0 0 0.0771726 0 0 0.000719666 0 0 0 0 0 0 0 0 0.00438443 0 0 0.0882137 0
368 0 0 0 0 8.13099 0 0 0 0 0 0 0 0 0 0 0 0 0 0 0 0 0 0 0 0 0 0 0 0 0 0 0 0 0 0 0 0 0 0 0 0 0 0 0 0 0 0 0 0 0 0 0 0 0 0 0 0 0 0 0 0 0 0 0 0 0 0 0 0 0 0 0 0 0 0 0 0 0 0 0 0 0 0 0 0 0 0 0 0 0 0 0 0 0 0 0 0 0 0 0
373 0 0 0 0 0.184948 0 0 0 0 0 0 0 0 0 0 0 0 0 0 0 0 0 0 0 0 0 0 0 0 0 0 0 0 0 0 0 0 0 0 0 0 0 0 0 0 0 0 0 0 0 0 0 0 0 0 0 0 0 0 0 0 0 0 0 0 0 0 0 0 0 0 0 0 0.0118464 0 0 0 0 0 0 0 0 0 0 0 0 0 0 0 0 0 0 0 0 0 0 0 0 0 0
377 0 0 0 0 3.04077 0 0 0 0 0 0 0 0 0 0 0 0 1.58641 1.60584 0 0 0 0 0 0 0 0 0 0 0 0 0 0 0 0 0 0 0 0 0 0 0 0 0 0 0 0 0 0 0 0 0 0 0 0 0 0 0 0 0 0 0 0 0 0 0 0 0 0 0 0 0 0 0 0 0 0 0 0 0 0 0 0 0 0 0 0 0 0 0 0 0 0 0 0 0 0 0 0 0
382 0 0 0 0 3.37234 0 0 0 0 0 0 0 0 0 0 0 0 0 6.68156 0 0 0 0 0 0 0 0 0 0 0 0 0 0 0 0 0 0 0 0 0 0 0 0 0 0 0 0 0 0 0 0 0 0 0 0 0 0 0 0 0 0 0 0 0 0 0 0 0 0 0 0 0 0 0 0 0 0 0 0 0 0 0 2.20747 0 0 0 0 0 0 0 0 0 0 0 0 0 0 0 0 0
131 0 0 0 0 0 0 0 0 0 0 0 0.175956 0 0 0 0 0 0 0 0 0 0 0 0 0 0 0 0.337365 0.252322 0 0 0 0 0 0 0 0 0.155034 0 0 0 0 0 0.00539674 0 0 0 0 2.41482 0 0 0 0 0 0 0 0 0.0442007 0 0 0 0 0.25146 0 0 0 0.423353 0 0 0 0 0 0 0 0 0.0733462 0 0 0 0 0 0 0 0.574932 0 0 0.606765 0 0 0 0 0 0 0 0 0 0 0 0.0106123 0
1231 0 0 0 0 0 0 0 0 0.0290204 0 0 0 0 0 0 0 0 0 0 0 0 0 0 0 0 0 0 0 0.126844 0 0 0 0 0 0 0 0 0 0 0 0 0 0 0 0 0.391781 0 0 0.0287363 0 0 0 0 0 0 0.00615 0.00221238 0 0 0 0 0 2.56311 0.30872 0 0 0 0 0 0 0.341861 0 0 0 0 0 3.65889 0.560449 0 0 0.039467 0 0.367386 0 0 0 0 0 0 0 0 0 0 0.158289 0 0 0 0 0 0
624 0.0390203 0.707165 0 0 0 0 0 0 0 0 0 4.59533 0 0 0 0 0.0977629 0 0 0 0 0 0 0 0 0.0682432 0 0 0.0113408 0 0 0 0 0 0 0 0 0 0 0 0 0 0 0 0 17.256 0 0 0 0 0 0.0920506 0 0 0 5.88379 0.120711 9.52822 0 0 0 0 0.0251641 0 0 0 0.0222033 0 0 0 0 0.171572 0.33786 0 0 0 22.8864 0 0 0 0 0 0 0 0.0111567 0 0 0 0 0 0 0 0 0.808884 0 0 0 0 0.0292474 0
502 0.0755614 0 0.0259699 0.0011408 0 3.90215 0.203712 0.234323 0 22.3427 1.66626 0.645133 0.0866359 8.873 0.109824 0 0 0.686069 20.4631 0 0.173065 0.0156553 0 0 0 0 0 0 0 0 0 0 0.207523 0.342474 0.915014 0.0173193 0 0 0.153282 2.178 0.000100976 0 0.368206 0.994478 0 0 13.7508 0.696737 0 0.0705335 0 0 0 0 0 0.0175221 0.405207 2.29496 5.01762 0 0 0.479098 1.85981 0 0 2.16705 0.0530528 0.0949635 0 0 0 0.00791286 0 0 0 0 27.1364 6.40085 0 0 0 0 0 0.0703557 0.2683 4.83014 0 0 0 0 0 0 0 0.0737311 0.185139 0 0.00380902 0.00725941 0 0
2109 0.445614 0.201721 0 0 0 0 0 0 0.0405031 0.104349 0.0490411 0.0442291 0 0 0 0 0.109785 0 0 0 0 0 0.00287247 0 0 0.443532 0 0.789894 0.0286812 0 0 0 0 0.0834885 0 0 0 0 0 0.00914897 0 0.666148 0.00168541 0 0 2.68395 0.0193161 0 0.00279134 0 0.363402 0 0 0 0.00566708 0 0.0484381 0 0.267137 0 0 0 0 0 1.86008 0 0 0 0 0 0 0 0 0 0 0 0 0 0 0.0409661 0.00438659 0 0.15018 0.362971 0.49251 0 0 0 0 0 0 0 0.00510407 0 0.531007 0 0 0 0 0
95 0 0 0 0 0 0 0 0 0 0 0 0.888454 0 0.305465 0 0 0.0698392 0 0.0877973 0.386203 0 0 0.00747899 0 0 0 0 0.113473 0.120118 0 0 0 0.0522608 2.97799 0 0 0 0.498047 1.27264 0 0.00316234 0 0.548298 0 0 0 0.0166893 0 0 0 0 0 0 0 0 0 0 0 0 0 0 0 0 0 0.307993 0 0.0583722 0 0 0 0 0 0 23.3591 0 0 0 0 0 0 0 0 0 0.37181 0 0 21.2797 0 0 0 0 0 0 0 0 0 0 0 0.148027 0
1415 0 0 0 0 0 0 0 0 0 0 0 0.668238 0 0 0 0.0219482 0 0 0 0 0 0 0 0 0 0.157453 0 0.0155255 0 0 1.96802 0 0.120693 0 0 0 0 0.26052 0 0 0.0253502 0.357859 0 0 0 0.259078 0 0 0 0 0.809293 0 0 0 0 0 0 0 0 0 0 0 0 0 0 0 0.0322545 0 0 0.0148428 0 1.22933 0 0 0 0 0 0 0 0 0 0 0.0090723 0.186962 0 0 0 0 0 0 0 0 0 0 0.00204986 0 0 0 0.211028 0
160 0.263132 0 0 0 0.0765403 0 0 0 0.749035 0.207883 0.0141366 0 0 0.343328 0 0 0 0 0 0 0 0 0 0 0 0 0 0 0 0 0 0 0.206492 0 0 0 0 0.481327 0.13275 0.00218643 0 0 0.0612855 0.0184154 0 0 0 0 0 0 0 14.1465 0 0 0 0.0029612 0.076739 0 0 0 0.0221026 0 0.668034 0 0.0783267 0.00430736 0.0514203 0 0 0 0 0.0450127 0 2.40659 0 0 0 0.00686314 0 0 1.25193 0 0 0.319662 0.00379573 0 0.265074 0.00173852 0.0568465 0 0 0.0136047 0 0.387094 0 0.0137921 0.00246553 0 0.379506 0
38 0 0.0966952 0 0 0 0 0 0 0.186841 3.41814 68.6308 0 0.633868 0 0 0 6.16377 0 0 0 0 0 0 0 0 0.539373 0 0 0.566622 28.1222 1.77671 0 1.55581 0 0 0.0412154 0 3.93762 0.00418366 1.28855 0 1.32185 0 2.05096 0 0 0 0 0 0 0.171447 0 0 0 0 0 39.2689 0 0 0.204101 1.95109 0.667885 0 0 0 0 0.247204 0 0 0 0 0.754954 0 0 0 0.934198 53.9013 0 0 0 0 0 0 0.381658 11.5029 0 1.19816 0 1.15466 0.00186048 0 2.59461 0 0.184085 0 0 0 0.442356 1.27645 0
1835 0 0 0 1.34241 0 0 0.142474 0 0 0 0.0549405 1.77964 0 0 0 6.11555 0.775965 0 0 0 0 0 0 0.000128282 0 0.00621147 0 0 0 0.0241673 0 0 14.3364 0 0 0 0 14.507 0 0 0 0 0 0 0 0.141525 0 0 0 0 0.00120147 0.00690828 0 0 0 0 0 0 0 0 0 0 0 0.00491857 0 0 0 0 0 0.484265 0.000282428 0 0 0 0.0127972 22.6354 0 0 0 0 0.000103984 0 0 0 0 0 0 0 0 0.000932094 0.00055613 0.00821263 0 0 0 0 0 0 0.0260271 0
1965 0 0 0 0 0 0.0035492 0 0 0.0147225 0 0 7.83838 0 0 0 0.984888 0 0 0 0 0 0 0 0 0 0 0 0 0 7.97927 0 0 0 0 0 0 0 2.54247 0.0727845 0 0 0.325313 0 0 0 0 0 0 0 0 0.043147 0 0 0 0 0 0 0 0 0 2.59466 0 0 0 0 0 0.00119317 0 0 0.104488 0 0 0 0 0 0 4.27678 0 0 0 0 0 0 0 0 0 0.845206 0 0 0.000950667 0 6.01248 0 0 0 0 0 0 0 0
565 0.795832 0.0781044 0 0 0 6.48843 0 0.148511 0 0 0 0 0.743365 0 0 0 0 0 0 0.162192 0 0 0 0 0 0 0 2.68357 0.0351091 0 0 0.145488 0.30141 0 0 5.24844 0 0.789684 0 0 0 0 0 0 0 1.35296 0 0 0 0 0 0 0 0 0 0 0.219581 0 0 0 0 0 1.26004 2.13097 0 0 3.07075 0 0 0.307441 0 0.111661 0 0 0 0 0 0 0.368867 0 0.646432 0 0.00150091 0 0 0 0.0811468 0 0 0 0 0 0 0 0 0 0 0 1.64791 0
580 0.992508 0.320312 0 0 0.0189619 0 0 0.0111223 1.65572 0 0 0 5.42657 0 0 1.31587 0.000500441 0 0 1.95179 0 4.5124 0 0 0 0.341969 0 0.0120366 5.94361 0 0 0 2.422 0 0 0 0 0.498216 0 0 0 0.928024 0 0.0250406 0 0 0 0 0 0 0 0.0136999 0 0 0 0 8.7881 0 0 0 0 0 0.661819 0.00823753 0.935317 0 0 0 0 0.877434 0.393073 7.77692 0 0 0 0 0 0 0 0 0 0 0 0 0 0 0.233225 0 0 0 0.000149065 0 0 0.375683 0 0 0 0 0.0351868 0
1734 1.85037 1.55672 0 0 0 0 0 0 0 0.906297 1.28349 3.13367 1.53827 0.556217 0 0 0 0.185931 0 0.179544 0 0 0 0 0 0 0 0.854761 0 0.0143891 0.194095 4.13416 59.7024 0 0.14876 0.323178 0 0 0 0.226471 0 2.48427 0.00938391 0.0480164 0 0 0.315672 0 0.456241 0 0 0 0 0 0.0731135 1.01481 0.255854 0 0 0.127583 0 0 0 1.91914 0.122783 0.0160636 0 0 0.0307642 0 0.778312 0.0900476 0.119414 0.666268 0 12.2395 0.973736 0 0 0 0 0.00473907 0 0.97001 0 0.412313 0.730846 0.180754 0 0 0 0 0 2.34546 0.438902 0 0.122635 0 0.964332 0.230902
327 0.0590275 0 0 0 0 0 0.53363 0 0 0 0 0.0592064 0 0 0 0.161699 0.0256715 0 0 0.0351212 0 0 0 0 0 3.0466 0 2.99812 0.259713 0 0 0 0.0428595 0 0 0 0 0 0 0 0 0 0 5.57766 0 109.465 0 0 0 0 0 0.0687353 0 0 0 0 0 0 0 0 0 0 0 7.72629 7.9006 0 0 0 0.324595 4.20842 0.103478 0 0 0 0 0.640235 0 0 0 0 0.0371126 0 0 2.64434 7.64646 0 0 0 0 0.4031 0 0 0 0 0 0 0 0 0.0797315 0
200 0.231323 0 0 0 0.984849 2.80741 0 0.00109524 0 0 0.807007 0 0 0 0 1.59586 0 0 0 0.260122 0 0 0 0 0 0 0 1.16192 0.254556 1.20003 0.365339 0 5.15396 0 0 0.652766 0 3.35308 0 0 0 0.946066 0 0 0 0 0 0 0 0 0 0.651682 0 0 0 0 0 0 0 0 0 0 1.22157 0 0 0 0.369846 0 0 1.22963 0 0 0.992226 0 0 0 0.389134 0 0 0 2.08343 0 0 0 0 0 0 0 0 0 0.0107197 0 0 0 0 0 0 0 0 0
4552 0 0 0 0 0 0.218537 0 0 0 0 0 0.297108 0 0 0 0.0995102 0 0 0 0.770395 0 0 0 0 0 0 0 0.0347099 1.12746 0 0 0 0 0 0 0 0 0.0709457 0 0 0 0 0 0 0 0.321173 0 0 2.18253 0 0 0.0385022 0 0 0 0 0 0 0 0 0 0 0.0939099 0 0 0 0 0 0 0.31992 0 0 0 0 0 0 0.212742 0 0 0 0 0 0 0 0 0 0 0 0 0 0 0 0 0 0 0 0 0 0 0
4194 0 0 0 0 0 0 0 0 0 0 0 0 0.00125308 0 0 0.0765306 0 0 0 0 0 0 0 0 0 0.000295223 0 0.285241 0 0 0 0 0.0377821 0 0 0 0 0 0 0 0 0.0022148 0 0 0 0 0 0 0.102815 0 0 0 0 0 0 0 0 0 0 0 0 0 0.116809 0 0 0 0.00298353 0 0 0 0 0 0 0 0 0.361445 0 0 0 0 1.0272 0 0 0 0 0 0 0 0 0 0 0 0 0 0 0 0 0 0 0
485 0 0 0 0 0.0194299 0 0 0 0 0.289547 0 0 0 19.535 0 9.86709 0 0 0 0 0 0 0 0 0 0 0 0 0.233077 0 0 0 0 0 0 0 0 0 0 0 0 0 0 0 0 0 0 0 0 0 0.0343269 0 0 0 0 0 0 0 0 0 0 0 0 0 9.44651 0 0 0 0 0 0 0 0 0.654779 0 0.03148 0 0 0 0 0 0 0 0 0 0 0.262269 0 43.7728 0 0 0 0 0 0 0 0 0 0 0
489 0.125511 0 0 0 0.00680055 0 0 0 0 1.65113 0 0.265715 2.87396 0 0 0.825976 0.0933099 0 0 0 0 0 0 0 0 0.0771012 0 0 0 0 0 0 0.198325 0 0 0 0 0 0 0 0 0.0369637 0 8.17918 0 0 0 0 0.00969866 0 0.633215 0 0 0 0 0 0 0 0.0270712 0 0 0 0 0 0 0 7.29662 0 0 0 0 0 0 0.000249529 0 0 0 0.00782945 0 0 0 0 0 0.101555 0 0 0.298691 0 0 0 0 0 0 0 0 0 0 0 0 0
490 0 0 0 0 0 0 0 0 0 0 0 0.000345459 0.574005 0 0 0.940416 0.00845797 0 0 0.95575 0 0 0 0 0 0 0 3.68529 1.17673 0 0 0 4.44864 0 0 1.11703 0 0 0 0 0 0 0.00102116 0 0 16.9018 0 0 0 0 0 3.53417 0 0 0 0 0.33655 0 0 0 0 0 0 0.216942 2.82169 0 1.02973 0 0.0233577 0 0 0 0.732136 0.00692133 0 0 1.01101 0 0 0 0.639474 0 0 0.133092 0 0 0.899476 0 0 0 0 0 0 0 0.000281501 0 0 0 0.018729 0
493 0 0 0 0 0 0 0 0 0 0 0 0 0 0 0 0 0 0 0 0.434802 0 0 0 0 0 0 0 0 0 0 0 0 1.04717 0 0 0 0 0 0 0 0 0 0 0 0 0 0 0 0 0 0 0 0 0 0 0 0 0 0 0 0 0 0 0 0 0 0 0 0 0 0 0 0 0 0 0 0 0 0 0 0 0 0 0 0 0 0 0 0 0 0 0 0 0 0 0 0 0 0 0
497 0 0 0 0 0 0 0 0.0519099 0 0 0 0 0 0 0 0 0 0 0 0 0 0 0 0 0 0 0 7.99359 0 0 0 0 0 0 0 0 0 0 0 0 0 0 0 0 0 0 0 0 0 0 0 0 0 0 0 0 0 0 0 0 0 0 0 0 11.39 0 0.0221534 0 0 0 0 0 0.541657 0 0 0.179815 0 0 0 0 0 0 0 0 0 0 1.632 0 0 0 0 0 0 0 0 0 0 0 0.00369489 0
503 0 0 0 0 0.120228 0 0 0.045277 0.046139 0.186489 0 0 0 0 0 0 0.0269669 0 0 0 0 0 0 0.00149632 0 0 0 0 0 0 0 0 0 0 0 0 0 0 0 0 0 0 0 0 0 0 0 0 0 0 0 0 0 0 0 0 2.60034 0.0169083 0 0 0 0.00213633 0 0.161991 0 0 1.09394 0 0 0 0 0.257638 0 0 0 0.374967 0 0 0 0 0 0 0 0 0 0 0.249212 0 0 0 0 0 0 0.0466658 0 0 0.00276461 0 0 0
4096 0 0 0.167475 0 0 0 0 0 0.491402 0.0156826 0.00405227 0.000490747 0 0 0 0.0266617 0.0902729 0 0 0.043167 0 0 0 0 0 0 0 0 0.124672 0 0 0 0.771305 0 0 0 0 0.187381 0 0 0 0 0 0 0 0.1407 0 0 0 0 0 0 0 0 0 0 0 0 0 0 0 0 0.00157226 0 0 0 0.922243 0 0 0 0 0 0 0 0 0.046125 0.000463053 0.136544 0 0 0.109956 0 0 0 0.680497 0 0 0 0 0 0 0 0 0 0 0 0 0 0 0
4128 0 0 0 0 0 0 0 0 0.138385 0 0 0.0137315 0 0 0 0 0 0 0 0 0 0 0 0 0 0 0 0 0 0 0 0 0 0 0 0 0 0 0 0 0 0 0 0 0 0 0 0 0 0 0 0 0 0 0 0 0 0 0 0 0.00250083 0 0 0 0 0 0 0 0 0 0 0 0 0 0 0 0 0 0 0 0 0 0 0.385405 0 0 0 0 0 0 0 0 0 0 0 0 0 0 0 0
2757 0 0 0.000934155 0 1.05733 0.0390495 0 4.4306 0.500576 0 0.674876 0 0 0 0 0.210959 0.600611 0 0.00147852 0.0122822 0 0.0255797 0 0 0 0 0 2.50384 0 10.2652 1.54695 0 4.47028 0 0 0.30697 0 0 0 0.861746 0 0 0 0.0704458 0 0.0070935 0 0 0 0 0.0439159 0.0113072 0 0 0.00472572 0 1.06176 0 0 0 0.102208 0 0.0271366 0.0960952 0.350087 0 0.0311724 0 0 8.43311 0 0.194388 0 0.110278 0 0.0466595 0.00578296 0 0 0 0 0 0 0 0.124421 0 0 0 0 0 0 0.165923 0 0.0656591 0 0.265811 0 0 0.660153 0
4134 0 0 0 0 0 0 0 0 4.28944 0 0 0 0 0 0 0 0 0 0 0 0 0 0 0 0 0 0 0 0 0 0 0 0 0 0 0 0 0 0 0 0 0 0 0 0 0 0 0 0 0 0 0 0 0 0 0 0 0 0 0 0 0 0 0 0 0 0 0 0 0 0 0 0 0 0 0 0 0 0 0 0 0 0 0 0 0 0 0 0 0 0 0 0 0 0 0 0 0 0 0
1770 0 0 0 0 0.0314096 0.00348769 0 0 1.20946 0 0 0 0 0 0 0.010354 1.62882 0 0 0 0 0 0.00114289 0 0 0 0 0.00316538 0 0.0274008 0.0854538 0 0.66732 0.0532108 0 0 0 0 0 0 0 0 0 0.00160813 0 0 0 0 0 0 0 0 0 0 0 0 0.298341 0 0 0 0 0 0.0561044 0 0 0 0 0 0 0 0 0 0 0 0 0 0 0.00575021 0 0.0248027 0 0 0 0.249613 0 0 0.0143536 0 0 0 0 0 0 0 0 0 0 0 0 0
4111 0 0 0 0 0 0 0 0.0713025 0.11637 0 0 0 0 0 0 0 0 0 0 0 0 0 0 0 0 0 0 0 0 0.000170276 0 0 0 0 0 0 0 0 0 0 0 0 0 0 0 0 0 0 0 0 0 0 0 0 0 0 0 0 0 0 0.840958 0 0 0 0 0 0 0 0 0 0 0 0 0 0 0 0 0 0 0 0 0 0 0 0 0 0 0 0 0 0 0 0 0 0 0 0 0 0.661801 0
2736 0 0 0 0 0 0 0 0 0.923443 0 0 0 0 0 0 0 0 0 0 0 0 0 0 0 0 0 0 0 0 0 0 0 0 0 0 0 0 0 0 0 0 0 0 0 0 0 0 0 0 0 0 0 0 0 0 0 0 0 0 0 0 0 0 0 0 0 0 0 0 0 0 0 0 0 0 0 0 0 0 0 0 0 0 0 0 0 0 0 0 0 0 0 0 0 0 0 0 0 0 0
3573 0 0.230633 0.432445 0.369956 0 0.0271563 0.160446 0 3.34711 0 0 0 0 0 0.143526 0.688627 0 5.52751 3.96765 0 0 0 0 0 0 0 0 0 0.20106 0.273419 0 0.842831 0 0.211725 0 0 0.000372817 0.0721435 0 0 0 0.0697972 0 0 0 0.143803 0 0 0 0 0 0 0 0 0 0 0 0.173376 0.0779678 0 0.00963721 0 0 0.232719 0.0465087 0 0.231082 0 0 0 0.0841677 0 0 0 0 0 1.40086 0 0 0 0 0 0 0 0 0 0.53579 0 0 0 0 0 0 0.248887 0.743605 1.95637 0.365503 0 0 0
4089 0 0 0.536403 0 0.590365 0 8.50921 0 0.519885 0.191158 7.18903 0 0 0.00317469 7.20411 0 0 0.109231 0.603125 0 0.0700431 0.0154142 0.0169367 0 0.26781 0 0 0 0 0 0 0 0 1.08463 0 0 0 0 0.0224339 0 0 0 0 0 0 0 0.0132149 0.542442 0 1.18801 0 0 0 0 0 0 0 0.108977 0 0 0 0.193381 0 0 0 0 0 0.0191721 0 0 0 0 0 0 0.0140008 0 0 0.33403 0 0 0 0 0.82958 0 0.213154 0 0 0 0 0.161383 0 0 0 0 0.0429013 0 0 0.746683 0 0
4121 0 0 0 0 0 0.0163432 0 0 0.364058 0 0 0.0933475 0.00264588 0 0 0.0229988 0 0 0 0 0 0 0 0 0 0 0 0 0.0783653 0 0.192897 0 0.56479 0 0 0 0 0.0104331 0 0 0 0 0 0 0 0 0 0 0.00121648 0 0 0.168675 0 0 0 0 0.056398 0 0 0 0 0 0 0 0 0 0 0 0 0 0 0 0 0 0 0 0 0 0 0 0.000936348 0 0 0 0.0248459 0 0.0601198 0.00887999 0 0 0 0 0 0.0144397 0 0 0 0.0244324 7.96587 0
575 0.00260372 0.270244 0 0 0 0.0519525 0 0.000359894 0.159875 4.81812 0 15.3898 0 0 0 3.21523 0.0410449 0 0 0.0797558 0 0 0 0 0 0 0 0.000539027 0.0673317 0 0 1.22749 0 0 0 0.238885 0 0 0 0 0 0.380954 0 0 0 0.0262543 0 0 0.377022 0 0 0.04605 0 0 0 0.0120928 1.13849 0 2.60567 0 0 0 0.000433468 0 0.500691 0 0.00325006 0 0 0 0 0 0 22.1678 0 0 0 0 0 0 0 0 0 0 0 0 0.127939 0 0 0 0 0.0765329 0 0 0 0 0 0 0.0555581 0
128 0 0 0.200902 0 0 0 0 0 0.0858926 1.04328 0 0.798858 0 0 0 0.980822 0 0 0 0 0 0 0 0 0 4.55288 0 1.79052 3.16954 0.483509 0.0560813 0 0.0936942 0 0 0 0 0.825293 0 0 1.44519 0 0 0.165504 0 0 0 0 0 0 0 0.0216132 0.0447996 0 0 0 0.619929 0 0 0 0 0 0.930261 3.2402 1.64245 0 0 0 0 1.40767 2.2237 0.407279 0 2.95951 0 0.0388715 3.89921 0 0 0 0 0 8.34357 0.0287729 0 0 0.0770783 0 0.175827 0.111218 0 0 0.00668145 0.321826 0 0 0 0 0.752305 0
642 0 0 0 0 0 0 0 0 0 0.0306487 0 0 0.0009007 0 0 0.0223752 0 0 0 0.00852908 0 0 0 0 0 0.135108 0 0 0.282135 0 0 0 0 0 0 0 0 0 0 0 0 0 0 0 0 0.230687 0 0 0 0 0 0.23165 0 0.463658 0 0 0.0641983 0 0 0.000331267 0 0 0 0.103479 0.121178 0 0 0 0 0 0 0 0 0 0 0.00114508 0 0 0 0 0 0 0 0 0.00718808 0 0.0533119 0 0 0 0 0 0 0 0 0 0 0 0 0
1289 0 0 0 1.05705 0 0 0 0 0 0 0 0 0.0688907 0.141985 0.537386 0 0 0 0 0 0.173344 0.000206562 0 0.246352 2.71694 0 0.494582 0 0.12224 0 0 0 0 0 0 0.0403207 0 0 0 0 2.376 0 0 0 0.623639 0 0 0 0 0.222634 0 0 0 0.261137 0 0.0489219 0 0 0 0 0 0 0 0 0 0.456796 0 0 0 0 0 0 0 0 0 0 0 0 0 0 0 0 0 1.74541 0 2.02106 0.114842 2.55502 0 0 0.459942 0.0221491 0 0 0.0593621 0 0 0.446482 0 5.0238
3853 0 0 0 0 0 0 0 0.0399007 1.37615 0 0 0.265644 0 0 0 0 0 0 0 0 0 0 0.0484471 0 0 0 0 0 0 0.555497 0 0 0 0 0 0 0 0 0 0 0 0 0 0 0 0 0 0 0 0.213687 0 0 0 0.433424 0 0 0 0 0 0 0 0 0 0.771367 0.408681 0 1.25066 0 0.00159585 0 0 0 0 0 0.0251517 1.00523 0 0 0 0 0.401562 0.00173353 0.0291771 1.82404 0.447225 0 0 0 0 0 0 0 0 0 0.00588873 0 0 0 0 0
401 0 0 0 0 0.325884 0 0 0 0 0 0 0 0 0 0 7.64508 0 0.381965 0 0 0 0 0.00190834 0 0 0 0 0 18.6364 0 0.0912238 0 0 0.000969576 0 0 0 0 0 0 2.69414 0 0 6.00609 0 0 0 0 0.196013 0 0 5.61661 0 0 0 0 0 0 0 0.00328217 0 0 0 0 0 0 6.2878 0 0 0.155793 0 0 0 0 0 0 2.11536 0 0 0 1.0402 0 0 0 0 0 6.013 0 0 0 0 0 0 1.06804 0.587131 0 0 0 0 0
1044 0 0 0 0 0 0 0 0 0.00630611 0 0 0 0.000344838 0 0 0 0 0 0 0.00250577 0 0 0 0 0 0.388648 0 0 0 0 0 0 0 0 0 0 0 0 0 0 0 0 0 0 0 0 0 0 0 0 0 0.0372702 0 0 0 0 0 0 0 0 0 0 0 0.0699495 0 0 0.120977 0 0 0 0 0 0 0 0 0 0 0 0 0 3.1737 0 0 0 0.34981 0 0 0 0 0 0 0 0 0 0 0 0 0 0 0
278 0 0 0 0 0 0 0 0 0.95797 0.176634 0 0 0 0 0 0 0 0 0 0.0736704 0 0 0 0 0 0.0190978 0 0.242558 0.00882868 0 0 0 0 0 0 0 0 0.188432 0 0 0 0 0 0.284356 0 0 0 0 0 0 0 0.026335 0 0.86441 0 0 0 0 0.0333225 0 0 0 0.0163235 0 0 0.0213379 0 0 0 0.424572 0 0 0 0 0 0.541271 0 0.0564434 0 0 0.139937 0 0 8.50079 0.055164 0 18.0129 0.44777 0 0 0 0 0 0 0 0 0 0 0 0
1943 0 0 0 0.0302208 0 0 0.111513 0 0 0 5.12397 0 0 0.464065 0.558131 0 0 0 0 0 0.000256653 0.0465456 0 0.00164218 0.331672 0 0 0 0 0 0 0 0 0 0.00217397 0 0 0 0 0 0 0 0 0 0.386348 0 0.00869118 0 0 19.4451 0 0 0 176.923 0 0 0 0 0 0 0 0 0 0.000380043 0 0 0 0 0 0 0 0 0 0 0.313471 0 0.130796 0 0 0 0 0 0 0.0630511 0 0 0.00131888 0 0.0743825 0 0.850618 0 0.0241685 0 0 0 0 0 0 0.200854
4385 0 0 0 0 0 0.00190174 0 0 0 0.000975098 0 0.0112568 0 0 0 0.078573 0.621326 0 0 0 0 0 0 0 0 0.0156829 0 0 0 0 0 0 0 0.0362374 0 0 0 0.0852275 0 0 0 0 0 0 0 0.0176818 0 0 0 0 0 0.0542704 0 0.142694 0 0 0 0 0 0 0 0 0.00582149 0.0016651 0.171815 0 0.347267 0 0 0 0 0 0 0.12048 0 0.122449 0 0 0 0 0.000270096 0 0 0 0.00165008 0 0.000265754 0 0.212717 0 0 0 0 0 0 0.0380804 0 0 0 0
4256 0 0 0 0 0 0 0 0 46.5903 0 0 0 0 0 0 0 0 0 0 0 0 0 0 0 0 0.0312637 0 0.00222286 0 0 0 0 0 0 0 0 0 0 0 0 0 0 0 0.004774 0 0.104984 0 0 0 0 0 0 0 0 0 0 0 0 0 0 0 0 0 0 0.0867782 0 0 0 0.000134956 0.00404282 0 0 0 0 0 0 0 0 0 0 0 0 0 0.000402208 0 0 0 0 0 0 0 0 0 0 0 0 0 0 0 0
677 0.0374546 0 0 0 0 0 0 0 0 0 0.133934 1.43724 0 0.0690007 0 0.0231846 0 0 0 0 0 0 0 0 0 0.282706 0 0 0.391629 0 0 0 0 0 0 0 0 0 0 0.148664 0 0 0 0.000511732 0 0 0 0 0.00201082 0 0.0351623 0 0 0 0 0 0 0 0.00191049 0 0 0 0 1.30015 0.264069 0 0.240812 0 0 0.0279647 0 0 0 0 0 3.56747 0 0 0 0 1.30059 0 0 0 0.212232 0 0 0 0.117398 0 0 0.000385352 0 0 0 0 0 0 0.0466047 0
2983 0 0 0 0 0 0 0 0 0.042699 0 0 0.000368072 0 0 0 0 0.00397533 0 0 0 0 0 0 0 0 0 0 0.00200616 0 0.0201976 0 0 0.00106924 0 0 0 0 0.00320357 0 0 0 0.000843011 0 0.0294801 0 0.039509 0 0 0 0 0 0.0128651 0 0.190311 0 0 0.0281391 0 0 0 0 0 0 0.0999403 0.0162717 0 0.00223923 0 0.000136304 0.00119205 0 0 0 0 0 0.0178748 0.0302245 0 0 0 0 0 0 0.00191451 0.160829 0 0 0 0 0 0.00100153 0.00130882 0 0 0 0 0 0 0.000678316 0.00585535
3373 0 0 0 0 0 0 0 0 0.958079 0.00388254 0 0 0.0289752 0 0 0 0.00922599 0 0 0 0 0 0.00484018 0 0 0 0 0.0069832 0 0 0 0 0.334421 0 0 0 0 0 0 0 0 0.140354 0 0.0102773 0 0 0 0 0 0 1.37327 0 0 0 0 0 1.0386 0 0 0 0 0 1.14367 0.0667629 0.0709006 0 0 0 0 0.0270474 10.7727 0 0 0 0 0.00260981 0 0 0 0 0 0 0 0.0346396 0.05973 0 0 0 0 0 0 0 0 0 0 0 0 0 4.64896 0
302 0 0 0 0 0 0 0 0 3.22774 2.72178 0 0 0 0 0 0 0 0 0 0 0 0 0 0 0 0 0 0 0 0 0 0 0 0 0 0 0 0 0 0 0 0.0283496 0 0 0 0.259247 0 0 0.174632 0 0 0 0 0 0 0 1.21333 0 0 0 0 0 0 0 0 0 0.528518 0 0 0 0 0 0 0 0 0 0 0.151564 0 0 0 0 0 0 0.115601 0 0 0 0 0 0 0 0 0 0 0 0 0 0 0
4527 0 0 0 0 0 0 0 0 0 0 0 0 0 0 0 0.00481796 0 0 0 0 0 0 0 0 0 0 0 0.109296 0 0.00118645 0.0165675 0 0 0.0690096 0 0 0 0 0 0 0 0 0 0 0 0.0895527 0 0 0 0 0 1.25336 0 0.000665895 0 0 0 0 0 0 0 0 0 0 0 0 0 0 0 0 0 0 0 0 0 0 0 0 0 0 0 0 0 0 0 0 0 0 0 0 0 0 0 0 0 0 0 0 0 0
53 0 0 0 0 0 0 0 0 0.00145963 0 0 1.18395 0 0 0 0.0713496 0 0 0 0 0 0 0 0 0 0 0 0.0676086 0.191484 0 0 0 0 0 0 0.00131368 0 0.0114236 0 0 0 0 0 0 0 0.341647 0 0 0 0 0 0 0 0 0 0 0 0 0 0 0 0 0 0.114078 0.360647 0 0 0 0 0 0 0 0 0 0 0 0.00755131 0 0 0 0 0 0.0632415 0.286619 0 0 0 0 0 0 0 0 0 0 0 0 0 0 0 0
2744 0 0.292807 0 0 0 0 0 0 0.0339959 0 0 0 0 0 0 0.107128 1.72272 0 0 0 0 0 0 0 0 0 0 0 0.0862412 0 0 0 0.616526 0 0 0.088407 0 0 0 0.0399866 0 0 0 0.485571 0 0 0 0 0 0 0 0 0 0 0 0 0 0 0 0 0 0 0.320275 0.315584 1.33473 0 0.797756 0 0 0 0 0 0 0 0 0 0 0 0 0 0 0 0 0 0 0 0 0 0.0643784 0 0 0 0 0.232882 0 0 0 0 0 0
4792 0 0 0.444653 0 0 0 0 0 9.25531 0 8.35435 0 0 0 0 0.130366 0 0 0.000522639 0 0 0 0 0 0 0 0 0 0 0 0 0 0.66454 0 9.74392 0 0 0 0 19.8153 0 0 1.28483 0 0 0 0 0 0 0 6.5036 0 0 10.5808 0 0 0.297952 0 0 4.2125 0 0 0 1.05176 2.30467 0.144891 0 0 0 0 0 0 0 0 0 2.84557 0 0 0 0 0 0 0 0 0 0 0 0.00182258 0 0 0 0 0 0 0 0 0 0 0 0
4283 0 0 0 0 0 0 7.03063 0 0.0362221 0 0.191651 0 0.00438992 0 0 0 0 0 0 0 0 0 0 0 0 0 0.57451 0 0 0 0 0 0.00266256 0 0 0 0 0 0 0 0 0.0205125 0 0.0320817 0 0.00135627 0 0 0 0 0 23.7981 0 0 0 0 0 0 0 0 0 0 0 0.960957 0 2.03691 0.0196574 0 0 0 0.184734 0 0 0 0 5.32376 0 0 0 0 0 0 0 0 2.12765 0 0 0 0 0 0 0.116152 0 0 0 0 0 0 0.162571 0
3782 0 0 0 0 0 0 0 0.304816 0.164335 0 0 0 0 0 0 0 0 0 0 0 0 0 0 0 0 0.0498502 0 0.0534707 2.01413 0 0 0 0 0 0 0 0 0 0 0 0 0.00728974 0 0 0.000161871 0.186379 0 0 0 0 0.000856987 0 0 0.0569567 0 0.0781437 0.0105856 0 0 0 0 0 0 0 0 0 0.00819563 0 0 0 0 0 0 0 0 0 0 0 1.79066 0 0 0 0 0.017791 0.0850047 0 0 0 0 0 0 0 0 0 0 0 0 0 0 0
709 0 7.10468 0 0 0 0 0 0.0159801 0.0145372 0.180875 0 5.0004 27.934 0 0 7.16194 0.349926 0 0 0 0 0.00203623 6.52179 0 0 0 0.0802229 0 0.0157276 0 0.00254614 0 0.00838896 0 0 0 0 0 0 0.000697054 0 0 0.000448515 70.127 0.000340106 9.18669 0 0 0.0174558 0 0 0.0111712 0 0.0110964 0 0.000742626 0.00391098 0 0.146836 0.226929 0 0 0 0.299937 0.000573565 0 75.4778 0 0 0 0 0 0 0.000589807 0.000344596 0 0.275389 0 0 0 0.00813094 0 0.018881 0 0.126211 0 0 0.00708485 0.00260415 0 0 0 0 0 0.015776 0 0 0 0.220328 0
329 0 0 0 0 0 0 0 0 0 0 0 0 0 0 0 0 0 0 0 0 0 0 0 0 0 0 0 0 0 0 0 0 0 0 0 0 0 0.144493 0 0 0 0 0 0 0 922.131 0 0 0 0 0 0 0 0 0 0 0 0 0 0 0 0 0.0605763 0 0 0 0 0 5.1633 0 0 0 0 0 0 1.33696 0 0 0 0 0 0 0 0 0 0 0 0 0 0 0 0 0 0 0 0 0 0 0 0
2530 0 0 0 0 0 0 0 0 0.208157 0 0 0 0 0 0 0 0 0 0 0 0 0 0 0 0 0 0 0.0866139 0 0 0 0 0 0 0 0 0 0 0 0 0 0 0 0.0137636 0 0.0102905 0 0 0 0 0 0 0 0 0 0 0 0 0 0 0 0 0 0.00257059 0.150952 0 0 0 0 0 0 0 0 0 0 0 0 0 0.000121696 0 0 0 0 0.0036029 0.0477041 0 0 0 0 0 0 0 0 0 0 0 0 0 0 0
4069 0.0289986 0 0 0 0 0 0 0 0.140788 0 0 0 0 0 0 0.000248763 0 0 0 0 0 0 0 7.21777 0 0 0 0 0 0 0 0 0 0 0 0 0 0 0 0 0 0 0 0.000747995 0 0.00639864 0 0 0 0 0 0 0 0.00698091 0 0 0 0.987428 0 0 0 0 0 0 0.353647 0 0 0 0 0 0 0 0 0.000115211 0 0 0 0 0.00199371 0 0 0 0 0 0 0 0 0 0 0.000359831 0 0 0 0 0 0 0 0 0 0
1385 0 0 0 0 0 0 0 0 0.848801 0 0 0 0 0 0 0 0 0 0 0 0 0 0 0 0 0.003436 0 0 0.0237074 0 0 0 0 0 0 0 0 0 0 0 0 0 0 0 0 0 0 0 0.179997 0 0.0636881 8.24901 0 0 0 0 0 0 0 0 0 0 0.207359 0.166715 0 0 0 0 0 0 0 0 0 0 0 0 0 0.0897177 0 0 0 0 0 0.0943554 0.355498 0 0 0 0 0 0 0 0 0 0 0 0 0 0.0590719 0
4336 0 0 0 0 0 0 0 0 0 0 0 0 0 0 0 0 0 0 0 0 0 0 0 0 0 0 0 0.0820944 0 0 0 0 0 0 0 0 0 0 0 0 0 0.00182166 0 0 0 0.00188873 0 0 0 0 0 0 0 0.601595 0 0 0 0 0 0 0 0 0 0.102591 0.279446 0 0.00324674 0 0 0.0707561 0 0 0 0 0 0 0 0 0 0 0 0 0 0 0 0 0 0 0 0 0 0 0 0 0 0 0 0 0 0
4086 0 0 0 0 0 0.00026268 0 0 0.0704764 0 0 0 0 0 0 0 0 0 0 0 0 0 0 0 0 0 0 0 2.04484 0.451533 0 0 0 0 0 0 0 0 0 0 0 0 0 0.0314813 0 0 0 0 0 0 0 0 0 0.129889 0 0 0 0 0 0 0 0 0 0 0 0 0 0 0 3.88833 0 0 0 0 0 0.146308 0 0 0 0 0 0 0 0 0 0 0 0 0 0 0 0 0 0 0 0 0 0 0 0
4862 0 0.0444384 0 0 0 0 0 0 0 0 0 0 0.221776 0 0 0 0 0 0 0 0 0 0.0225861 0 0 0 0 0 62.03 0 0 0 0 0 0 0 0 0 0 0 0 0 0 0.633065 0 0 0 0 0 0 0 0 0 0 0 0 0 0 0 0 0 0 0 0 0 0 0.748959 0 0 0 0 0 0 0 0 0 0 0 0 0 0 0 1.74155 0 0 0 0 0 0 0 0 0 0 0 0 0 0 0 0 0
4223 0 0 0 0 0 0 0 0 0.353625 0 0 0 0 0 0 0 0 0 0 0 0 0 0 0 0 0.0837152 0 0 0 0 0 0 0 0 0 0 0 0 0 0 0 0 0 0 0 0 0 0 0 0 0 0 0 0.249377 0 0 0 0 0 0 0 0 0 0.0692296 0.236753 0 0 0 0 0 0 0 0 0 0 0 0 0 0 0 0 0 0 0.00806702 0.259995 0 0 0 0 0 0 0 0 0 0 0 0 0 0 0
261 0 0 0 0 0 0 0 0 0 0 0 0 0 0 0 0 0 0 0 0 0 0 0 0 0 0 0 0 0 0 0 0 0 0 0 0 0 0 0 0 0 0 0 0 0 0 0 0 0 0 0 0 0 0 0 0 0 0 0 0 0 0 0 0 0 0 0 0 0 0 0 0 0 0 0 0 0 0 0 0 0.108228 0 0 0 0 0 0 0 0 0 0 0 0 0 0 0 0 0 0 0
1928 0 0 0 0 0 0 0 0 0 0 0 0 0 0 0 0 0 0 0 0 0 0 0 0 0 0 0 0 1.97427 0 0 0 0 0 0 0 0 0 0 0 0 0 0 0 0 0 0 0 0 0 0 0.194042 0 0 0 0 0 0 0 0 0 0 3.78068 0 0 0 0 0 0.113625 0 0 0 0 0 0 0 0 0 0 0 0 0 0 0 0 0 0 0 0 0 0 0 0 0 0 0 0 0 0 0
2441 0 0 0 0 0 0 0 0 0 0 0 0 0 0 0 0 0 0 0 0 0 0 0 0 0 0 0 0 50.1731 0 0 0 0 0 0 0 0 0 0 0 0 0 0 0 0 0.860772 0 0 0.0494973 0 0 0.0429501 0 0 0 0 0 0 0 0 0 0 0 0 10.8023 0 0 0 0.274305 0 0 0 0 0 0 6.2511 0 0 0 0 4.5901 0 0 0 0 0 0 0 0 0 0 0 0 0 0 0 0 0 0 0
4886 34.4983 0 0 0 0.193121 0 0 0 0 0.119027 0 0.00348764 0 0 0 0 0 0 0 0 0 0 0 0 0 0.57587 0 0 0 0 0 0 0 0 0 0 0 1.41655 0 0 0.0388612 0 0 0 0 0 0 0 0 0 0 0 0 0 0 0 0 0 0 0 0 0 0 0 0.195724 0 0 0 42.2667 0.115453 0 0.384076 0.0275387 0.0634956 0 0.729293 0 0 0 0 0.804559 0 0 0.785237 0 0 0 0 0 0 0 0 0 0.382466 1.63183 0 0 0 0 0
3228 0 0 0 0 0 0 0 0.0224749 0 0 0 0 0 0 0 0 0 0 0 0 0 0 0 0 0 0 0 0 1.1947 0 0.0364256 0 0 0 0 0 0 0 0 0 0 0 0 0 0 0.680556 0 0 0 0 0 0 0 0 0.249689 0 0 0 0 0 0 0 0 0.70503 0.259741 0 0 0 0 0 0 0 0 0 0 5.90502 0 0 0 0 0.360072 0 0 0 0 0 0 0 0 0.246517 0 0 0 0 0 0 0 0.0851804 0 0
1963 0 0 0 0 0 0 0 0 0 0.143837 0 0 0 0.0634834 0 0.0289663 0.0478846 0 0 0.691767 0 0 0 0 0 0 0 0.0464241 0 0 0 0 0 1.2205 0 0 0 0.699416 0.226458 0.0180972 0 0 0 0 0.000236408 0 0.139472 0 0 0 0.434346 0 0 0 0 0 0.060681 0 0.0398648 0 0 0 0.321125 0 0 0 0 0 0 0 0 0 0.00499248 0 0 0 0.255637 0 0 0 4.39818 0 0 0 0 0 91.3039 0 0 0 0 0 0 0 0 0 0 0 0.772315 0
1330 1.23915 0 0 0 0 0 0 0.00758909 0 0 0 0.944267 0 0 0 0 0 0 0 0 0 0 0 0 0 0 0 0 0 0 0 0 0 0 0 0 0 0.0418657 0 0 0 0.0495046 0 0.269495 0 0 0 0 0.4606 0 0 0 0 0 0 0 0 0 1.0932 0 0 0 0.211309 2.90884 0.102042 0 0 0 0 0 0 0 0 0 0 0.207645 0 0.608629 0 0 0 0 0 0 0 0 0 0 0 0 0 0 0 0 0 0 0 0 0 0
322 0 0 0 0 0.212462 0 0 0.253117 0 0 0 0 0 0 0 0 0 0 0 0 0 0 0 0 0 0 0 0 283.844 0 0 0 0 0 0 0 0 1.41578 0 0 0 0 0 0 0 0 0 0 0 0 0 6.71547 0 0 0 0 0 0 0 0 0 0 4.91248 0 0 0 2.03281 0 0 0 0 0 0 0 0 0 0 0 0 0 0.348175 0 0 0 0.0235175 0 0 0 0 0 0 0 0 0 0 0 0 0 0 0
4676 0 0 0 0 0 2.02302 0 0 0 0 0 0 0 0 0.00474483 0 0 0 0 0 0 0 0 0 0 0 0 0.63047 0 0 0 0 0 0 0 0 0 0 0 0 0 0 0 0 0 0 0 0 0 0 0 0 0 0 0 0 0.247979 0 0 0 0 0 0 0.534691 0 0 1.52471 0 0 0 0 0 0 0 0 4.99516 5.16849 0 0 0 0 0 0 0 0 0 1.56526 0 0 0 0 0 0 0 0 0.231122 0 0 0.213662 0
3273 0 0.0858866 0 0 0 0 0 0 0 0 0 0 0 0 0 0 2.68374 0 0 0 0 0 0 0 0 0 0 0 0.211992 0 4.16167 0 0 0 0 0 0 0.00474104 0 0 0 0 0 0 0 0 0 0 0 0 0 0.0332473 0 0 0 0 0 0 0 0 0 0 0.0964943 0 0 0 1.22229 0 0 0 0 0 0 0 0 2.01907 0 0 0 0 0.0674488 0 0 0 1.73314 0 0 0 0 0 0 0 0 0 0 0 0 0 0 0
1746 0 0 0 0 0 0 0 0 0 0 0 0 0 0 0 0 1.3997 0 0 0 0 0 0 0 0 0 0 0 0 0 0 0 0 0 0 0 0 0.191056 0 0 0 0 0 0 0 0 0 0 0 0 0 0.331482 0 0 0 0 0 0 0 0 0 0 0 0 0 0 0 0 0 0 0 0 0 0 0 0.0561698 0 0 0 0 9.45404 0 0 0 0 0 0 0 0 0 0 0 0 0 0 0 0 0 0 0
1118 0 0.00507619 0 0 0 0 0 0 0 0.612398 0 0.0214645 0 0 0 0 0.307931 0 0 0.141703 0 0 0 0 0 0 0 0 0 0 0 0 0 0 0 0 0 0.491966 0 0 0.0049551 0 0 0.396899 0 0 0 0 0.00315272 0 0 0.181601 0 0 0 0 0.448074 0 0 0 0 0 0.913084 0.000274371 0 0 0.0312691 0 0 0 0 0 0 0.174762 0 0.289298 0 0 0 0.435847 0 0 0 1.12765 0 0 0 0 0 0 0 0 0 0.0113488 0 0 0 0 0.440073 0
871 0 0.43353 0 0 0 0.0570411 0 0 0 0.0569583 0 0 0 0 0 0 0 0 0 0 0 0 0 0 0 0 0 0.0206734 0 0 0.00862159 0 0 0 0 0.0170409 0 0 0 0 0 0.02107 0 0 0 0 0 0 0 0 0.0729719 0.0254746 0 0 0 0 0 0 0 0 0 0 0 0 0 0 0.0473479 0 0 0 0 0 0 0 0 0.0990479 0 0.00539736 0 0 0.264992 0 0 0 0.394849 0 0 0 0 0.0724518 0 0 0 0.00114254 0 0 0 0 0.064064 0
3055 0 0 0 0 0 0 0 0 0 0 0 0 0 0 0 0 0 0 0 0 0 0 0 0 0 0 0 0 0.0223579 0 0 0 0 0 0 0 0 0 0 0 0 0 0 0 0 0 0 0 0 0 0 0.303022 0 0 0 0 0 0 0 0 0 0 0 0 0 0 0 0 0 0 0 0 0 0 0 0.0673048 0 0 0 0 0.430921 0 0 0 0 0 0 0 0 0 0 0 0 0 0 0 0 0 0 0
625 0 0 0 0 0 0 0 0 0.935081 0 0 0 0 0 0 0 0 0 0 0 0 0 0 0 0 0 0 0 3.00015 0 0 0 0 0 0 0 0 0 0 0 0 0 0 0 0 0 0 0 0 0 3.37563 0 0 0 0 0 0 0 0 0 0 0 6.79655 0 0 0 0 0 0 0 0 0 0 0.000450492 0 0 0 0 0 0 0 0 0 0 0.0010794 0 0 0 0 0 0 0 0 0 0 0 0 0 0 0
3058 0 0 0 0 0 0.0269603 0 0.931652 0 0 0 0 0 0 0 0 0 0 0 0.00660585 0 0 0 0 0 0 0 0 0 0 2.17956 0 2.65323 0.0159454 0 0.116564 0 0 0 0 0 1.63651 0 0 0 0 0 0 0 0 0.169654 0 0 0 0 0 0.00649532 0 0 0 0 0 0.476955 0 0.610595 0 0 0 0 0 0 0 0 0 0 0 0 0 0 0 0 0 0 0 0 0 0 0 0 0 0 0 0 0.169983 0 0 0 0 0 0
118 0.000861603 0 0 0 0.613896 0.0216248 0 0 0.00142837 0 0 0.985627 0 0 0 0 0.282482 0 0 0 0 0 0.000521755 0 0 0.113201 0 0.00322084 0.0040964 0 0 0.0107319 0.00881837 1.33335 0 0 0 0.123072 0 0.00986065 0 0 0 0 0 0 0 0 0.0146845 0 0.146534 0.0459178 0 0 0 0 0.422017 0 0 0 0 0 0.793244 0 0 0 1.77828 0 0 1.63269 0 0 0.0458823 0 0 0.0379457 0 0 0 0 0.120015 0 0 0 0 0 0.0026272 0 0.314286 0.0160804 0 0 0 0 0 0 0 0 0.0598687 0
3207 0 0.28904 0 0 0 0.0162812 0 0 0 0 0.0954478 0 0 0 0 0 0 0 0 0 0 0 0 0 0 0 0 0 0.0645785 0 0 0 0.846993 0 0 0 0 0 0 0 0 0 0 0 0 0.0605873 0 0 0 0 0.0271822 0 0 0 0 0 0.0310723 0 0 0 0 0 0.00729905 0 0.0225802 0 0 0 0 0 0 0 0 0.0141226 0 0 0 0 0 0 0 0.0821295 0 0.0510027 0.328236 0 0 0 0 0 0 0 0 0 0 0 0 0 0.122975 0
537 0 0 0 0 0 0 0 0 0.837684 0 0 0 0 0 0 1.00775 0.0738365 0 0 0 0 0 0 0 0 0.655711 0 0 5.05947 0.925086 0 0 0 0 0 0 0 1.40267 0 0.069804 0 0 0 0 0 0.000742851 0 0 0 0 0 0 0 0 0.0923805 0 0.0142796 0 0 0 0 0 27.4038 3.03545 0.00660379 0 0.320333 0 0 0 0 0.0646795 0 0 0 0.234179 0.536964 6.19352 0 0 0.962811 0 0 0.431891 0 0.01679 4.10116 0 0 0 0.0153286 0 0 2.94871 0 0 0 0 0.0816557 0
1180 0 0 0 0 0 0.00104409 0 0 0.00851542 0.311921 0.125191 0.00452273 0 0 0 0 0 0 0.00042133 0 0 0 0 0 0 0 0 0 0 0 0 0 0 0 0 0.094986 0 0 0 0 0 0 0 0 0 1.39884 0 0 0 0 0 0 0 0 0.000228763 0 0 0 0 0 0 0 0 0 0 0 2.65216 0 0 2.65956 0 0 0 0.991031 0 0 0.000515486 0 0 0 0 0 1.19367 0.0297442 0 0 0 0 0.119694 0 0 0 0 0 0 0 0 0.0123844 0 0
685 0 0 0 0 0.508559 0 0 0 0.164108 0 0 0 0 0 0 0.00079494 0 0 0 0 0 0 0 0 0 0 0 0 0 1.11109 0.0781614 0 0 0 0 0 0 0 0 0 0 0.000145528 0 0 0.355057 0 0 0.000250773 0 0.0145287 0.00621557 0.672328 0 0.11003 0 0 0.160327 0 0 0 0 0 0 0 0.0404466 0 0 0 0.17688 0.933582 0 0 0 0 0.00125683 0.452801 0 0 0 0 0.0244233 0.0116781 0 0 0.0587169 0 0 0 0 0 0 0 0 0.000796712 0.337117 0 0 0.0180251 0 0.0046586
558 0.131024 0.334467 0 0 0 0.358464 0 3.13539 0 0.427625 0 0 1.07721 0 0 0 0 0 0 0 0 0 0 0.00719665 0 0.238601 0 0.124591 1.68461 0 0.230535 0 0 0 0 0 0 2.8345 0 0 0 0.556675 0 2.21839 0 2.62626 0 0 0 0 0 0.020855 0 0 0.42229 0 0 0 0 0 0 0 0 0 0 0 2.86064 0 0 0 0.199886 0 0 0 0 0 0 0 0 0 0.0642047 0 0 0.565495 0 0 0 0 0 0 0 0 0 0 0 0 0 0.508929 0 0
1847 0 0 0 0 0 0 0.166156 0 0.0442865 0 0 0 0 0 0 0 0 0.147398 0 0 0 0 0 0 0 0 0 0 0 0 0 0 0 0 0 0 0 0 0 0 0 0 0 0 0 0 0 0 0 0 0 0 0 0.353744 0 0 0 0 0 0 0 0 0 0 0 0 0 0 0 0 0 0 0 0.0164043 0 0.0513587 0.231867 0.0819522 0 0 0 1.03502 0 0.144276 0 0 0.336363 0 0 0 0 0 0 0 0.113806 0 0 0.706388 0.010307 0
1216 0 0 0 0 0 2.82034 0 0 0 0 0 0.00583266 0.000535685 0 0 0 0 0 0 0 0 0 0 0 0 0 0 0.490991 0.0113371 0 0 0 0 0 0 0 0 0 0 0 0 1.33118 0 0.000535899 0 0.00914729 0 0 0 0 0.558878 1.87057 0 0 0 0 0.12531 0 0 0 0 0 0.603792 0 0.00884442 0 0.0679558 0 0 0 0 0 0 0.18151 0 0 0 0 0 0 0.632568 0 0 0 0.258048 0 0 0 0 0 0 0 0 0.0301688 0 0 0 0 0.464125 0
967 0 0 0 0 0 0 0 0 0 0 0 0 0 0 0 0 0 0 0 0 0 0 0 0 0 0 0 0 2.30587 0 0 0 1.64709 0 0 0 0 0.000899172 0 0 0 0 0 0 0 0.430421 0 0 0 0 0 0 0 0 0 0 0 0 0 0 0 0 0 0 0 0 0 0 0 0 0 0 0 0 0 0.786111 0 0 0 0 0 0 0 0 0 0 0 0 0 0 0 0 0 0 0 0 0 0 0 0
603 0.289102 1.54205 0 0 2.35094 0 0 0 0.000722463 0.0789659 0 1.8199 0 0 0 0 0 0 0.0655935 0 0 0 0 0 0 0 0 0 0.08286 0 0.0219262 0.0126488 1.98376 12.2505 0 0 0 0.368372 0.727614 0 0 0.196433 0 0 0 0.501999 0 0 0.132661 0 0 2.58396 0 0 0 0 0.0265122 0 0.0986742 0 0 0.482198 0 1.07292 0 0.000979983 0.00593146 0 0 0 0 0 0.0823288 14.3296 0 0 0 0.0188109 0 0 0.00414247 0 0 0 0.00164243 0 0.410229 0 0 0.0824988 0 0 0 1.70978 0 0 0 0 0.732857 0
3300 0 0 0 0 0 0.19448 0 0.0166997 0.0420172 0 0.037964 0.208769 0 0 0 0 0 0 0 0.00497358 0 0 0 0 0.0278434 0 0 0 0 0 0 0 0.00810438 0 0 0 0 0.0326772 0 0 0.00192676 0.00221739 0 0 0.00369213 0 0 0 0 0 0 1.0594 0 0 0 0.459913 0.0406348 0 0 0 0 0 0.037175 0 0 0 0 0 0.384496 0.0137847 0 0 0 0 0 0.0788713 0 0.00750021 0 0 0 0 0 0 0 0 0 0 0 0 0 0 0 0.164918 0 0 0 0.00117668 0.00064135 0
997 0.156166 0.490382 0 0 0 0 0 2.54934 0.0676289 0.0279698 0 0.288522 0 0 0 0.107027 2.18454 0 0 0 0 0 0 0 0 0 0.124669 0 0 0.359546 0 0.0437761 0.338233 0.0308309 0 0 0 0.00166475 0 0.0896252 0 0 0 0 0 0.0147391 0 0 0 0 1.45133 0 0 0 0 0 0 0 0.676939 0.00646511 0 0 0 0.021315 0 0 0 0 0 0 0 0 0.0197227 0 0 0 0 0 0 0 0 0 0 1.23046 0 0.246266 0 0 0 0 0.0033586 0 0 0 0.00595586 0 0 0 12.7456 0
3186 0 0.666781 0 0 0 0 0 0 0.0446379 0.100911 0.73048 0 0.142133 0 0 0.00137979 0 0 0 0 0 0 0 0 0 0.0107943 0 0 0.0220772 0.385881 0 0 0.248865 0 0 0 0 0.160642 0 0 0 0 0 0 0 0 0 0 0 0 0.0636649 0.62722 0 0 0 0 0.480909 0 0 0 0 0 0.244919 0 0 0 0 0 0 0 0 0 0 0 0 0 0 0 0 0 0 0 0 0 0 0 0 0 0 0 0 0 0 0.827569 0 0 0 0 0 0
1524 0 0 1.90857 0.000483789 0 0.0124776 2.52237 0.0589929 0 0 921.359 0.0591257 0 0 0.000945216 0 0.0593045 0 0 0 0 0 0 0 0.00139886 1.17175 0.00229968 10.8267 0.986026 0 0 4.41902 0.687851 0 0 0.000373833 0 0.000132974 0 0.000105387 0 0.493726 0 0.206642 0.000386711 0 0 0 0.458905 0 324.239 0 0 0 0 0 0 0 0.00518944 0 0 0 0 1.23883 0.0205015 0 0.652171 0 0.000183545 0 1.42926 0.554944 0 0 0 104.143 0 0 0 0 0 0.00296878 16.7677 0 0 8.70646 1.0597 0 0 0 0.383996 0.266179 0.17364 0.367598 0.10994 0 0 0.0003954 1.82155 0
1550 0 0 0 0.0998199 0 0 12.0067 0 0 0 1.08778 0 0 0 0.0120067 0 0 0 0 0 0 0 0.000233064 0 0.327825 0 0.0538237 0 0 0 0 0 0 0 0.0857008 0 0 0 0 0.000420385 0 0 0.0261451 0 0 11.5258 0 0 0 0 0 0 0 0 0.017607 0 0 0 0 0 0 0.0231211 0 0 0 0 0 0 0.000545635 0 0 0 0 0 0 0 0.0275427 0 0 0 0 0 2.53304 0.00106974 0 0 0 0.0674018 0 0 0.000957794 0 0 0 0.00227584 0 0 0 0.000775403 0.0505741
3605 0 0 0 0 0 0 0 0 0 0 0 0 0 0 0 0 0 0 0 0 0 0.90595 0 0 31.7183 0 0 0 0 0 0 0 0 0 0 0 0 0 0 0 0 0 0 0 0 0 0 0 0 0 0 0 0 0 0 0 0 0 0 0 0 0 0 0 0 0 0 0 0 0 0 0 0 0 0 0 0 0 0 0 0 0 0 0 0 0 0 0 0 0 0 0 0 0 0 0 0 0 0 0
3105 0 0 0 0 0 0 0 0 0 0 0 0 0 0 0 0 0 0 0 0 0 0 0 0 0 0 0 0.456606 0 0 0 0 0 0 0 0 0 0 0 0 0 0.0052747 0 0 0 0.417939 0 0 0 0 0 0 0 0 0 0 0 0 0 0 0 0 0 0 0.134887 0 0.000573928 0 0 0 0 0 0 0 0 0 0 0 0 0 0 0 0 0 0.0278544 0 0 0 0 0 0 0 0 0 0 0 0 0 0 0
1574 0 0 0 0 0 0 0 0 0 0 0 0 0 0 0 0 0.0129679 0 0 0 0 0 0 0 0 0 0 0.000773738 0 0 0 0 0.0683073 0 0 0 0 0 0 0 0 0 0 0 0 0.00650252 0 0 0 0 0 0 0 0 0 0 0 0 0 0 0 0 0 0 0 0 0 0 0 0 0 0 0 0 0 0 0 0 0 0 0 0 0 0 0 0 0 0 0 0 0 0 0 0 0 0.61783 0 0 0 0
4646 0 0 0 0 0 0 0 0 0 0 0 0 0 0 0 0 0.0080214 0 0 0 0 0 0 0 0 0 0 0 0 0 0 0 0 0 0 0 0 0 0 0 0 0 0 0 0 0.0173438 0 0 0 0 0 0 0 0 0 0 0 0 0 0 0 0 0 0 0 0 0 0 0 0 0 0 0 0 0 0 0 0 0 0 0 0 0 0 0 0 0 0 0 0 0 0 0 0 0 0 0 0 0 0
41 0.0136296 0 0 0 0 0 0 0.0280149 0 0.000415716 0 0 0.0460714 0 0 0 0.0596055 0 0 0 0 0 0 0.394064 0 0.281636 1.06338 0 0 0.0339356 0.0247981 0 0 0 0 0 0 0 0 0.000901243 0.0324236 0.0329427 0 0.182205 0 0.16603 0 0 0 0 0 0 0 0 0.00501149 0.000386808 0 0 0 0 0 0 0 0.239519 0 0 0 0 0 0 0.22301 0 0 0 0 0 0 0 0 0 0 0 0 0.00874918 0 0 0 0 0 0 0 0 0 0 0 0 0 0 0.255601 0
4138 0 0 0 0 0 0 0 0 0 0 0 0 0 0 0 0 5.62123 0 0 0 0 0 0 0 0 0 0 0 0 0 0 0 0 0 0 0 0 0 0 0 0 0 0 0 0 0.435048 0 0 0 0 0.00263037 0.0252571 0 0 0.00359741 0 0 0 0 0 0 0 0 0 0 0 0 0 0 0.00870222 0 0 0 0 0 0 0 0 0 0.00451961 0 0 0 0 0 0 0 0 0 0 0 0 0.00579202 0 0 9.43212 0 0 0 0
4143 0.029926 0 0 0 0 0 0 0.07777 0 0 0 0 0 0 0 0 0.274121 0 0 0.00489616 0 0 0 0 0 0.0133374 0 0 0 0 0 0 0.0345566 0 0 0.00451043 0 0 0 0 0 0 0 0 0 0.0219543 0 0 0 0 0 0 0 0 0 0 0.153991 0 0 0 0 0 0.00222968 0 0 0 0 0 0 0 0 0 0 0 0 0 0 0 0 0 0 0 0 0 0 0 0 0 0.000225081 0 0 0 0 0 0 0 0 0 0 0
1586 0 0 0 0 0 0 0 0 0 0 0 0 0.00701959 0 0 0 0.581723 0 0 0 0 0 0 0 0 0 0 0.00945411 0 0 0 0 0 0 0 0 0 0 0 0 0 0 0 0 0 0.01289 0 0 0 0 0 0 0 0 0 0 1.73101 0 0 0 0 0 0.574678 0 0 0 0 0 0 0 0 0 0 0 0 0 0 0 0 0 0 0 0 0 0.36419 0 0 0 0 0 0 0 0 0 0 0 0 0 0 0
4153 0 0 0 0 0 0 0 0.805309 0 0 0 0 0 0 0 0.0446401 5.43256 0 0 0 0 0 0 0 0 0 0 0 0.090035 0 0 0 0 0 0 0 0.368345 0 0 0 0.00569498 0 0 0.0147133 0 0 0 0 0 0 0 0.0167608 0 0 0.181951 0 0.0143744 0 0 1.27429 0 0 0 0 0 0 0 0 0 1.11931 0 0 0 0 0 0 0 0 0 0.284017 0.0036449 0 0.436615 0 0 0 0.0124331 0 0 0 0 0 0 0.00342643 0 0 0 0 0 0
4155 0 0 0.00166311 0 0 0 0 0.0121854 0 0 0 0 0 0 0 0.897811 0.027767 0 0 0 0 0 0 0 0 0.0200894 0 0 0 0.116327 0.0255729 0 0 0 0 0.00332231 0 0 0 0 0.0153495 0 0 0 0 0 0 0 0 0 0 0 0 0 0.166444 0 0 0 0 0 0 0 0 0 0 0 0 0 0 0.0140285 0.000458525 0 0 0.0891612 0 0 0 0 0 0 0 0 0 0 0 0 0 0 0 0 0 0 0.00564322 0 0 0 0 0.000336765 0.0524351 0
4168 0 0 0 0 0.00170248 0 0 0 0 0 0 0 0 0 0 0 0 0 0 0 0 0 0 0 0 0 0 0 0 0.0924323 0.000731336 0 0 0 0 0.00125549 0 0 0 0 0 0 0 0 0 0.095175 0 0 0 0 0 0 0 0 0.000312549 0 0 0 0 0 0 0 0 0 0 0 0 0 0 0.150979 0 0 0 0 0 0 0 0 0 0 0 0 0 0 0 0 0 0 0 0 0 0 0 0 0 0 0 0 0 0
1609 0.154281 0 0.565948 0 0 0 0 0.0303506 0 0 0 0 0 0 0 0 0.0102965 0 0.000458577 0 0 0 0 0.000204306 0 0.00113869 0 0 0 0 0 0 0 0 0.0058098 0 0 0 0 0 0 0 0 0 0 0 0 0 0 0 0 0 0 0 0.000629059 0 0 0 0 0 2.0435 0 0 0 0 0 0 0 0 0 0.0116648 0 0 0.000648115 0 0 0 0 0 0 0 0 0.00130862 0 0 0 0 0 0 0 0.00113809 0 0.288656 1.10245 0 0.0110775 0 0 0 0
586 0 0 0 0 0 3.34943 0 0.267821 0 0 0 0 0 0 0 0 0 0 0 0 0 0 0 0 0 0 0 0 0 2.89763 1.64416 0.012499 0 0 0 0 0 0.0317948 0 0 0 0 0 0 0 0.120557 0 0 0 0 3.38151 0 0 0 0 0 0 0 0.00772266 0 0 0 0 0.0202019 0 0 0 0 0 0 0 0 0 0 0 0.0296453 0 0 0 0.0369521 0 0 0 0 0 0 0 0 0 0 0 0 0 0 0.106085 0 0 0 0 0
1610 0 0 0 0 0 0 0 0.208249 0 0 0 0 0 0 0 0 0.0337672 0 0 0 0 0 0 0 0 0.090466 0 0 0 0 0 0 0 0 0 0 0 0 0 0 0 0 0 0 0 0.00714128 0 0 0 0 0 0.00051473 0 0 0.0574228 0 0 0 0 0 0 0 0 0 0 0 0 0 0 0 0 0 0 0 0 0 0.156836 0 0 0 0 0 0 0 0 0 0 0 0 0 0 0 0 0 0 0.0179221 0 0 0 0
1618 0 0 0 0 0 0 0 0 0 0 0 0 0 0 0 0 0.195779 0 0 0 0 0 0 0 0 0 0 0 0 0 0 0 0 0 0.397107 0 67.9653 0 0 0 0 0 0.149542 0 0 0 0.433881 0 0 0 0 0.274386 0.749549 0 0.00146599 0.00582848 0.000321521 0 0 0 0 0 0 0 0 0 0 0 0.0744786 0 0 0 0 0 0.000301575 0 0 0 0 0 0 0 0 0 0 0.066528 0 0 0 0 0 0 0 0 0 0.148148 0 0 0 1.52632
4183 0 0 0 0 0 0 0 0.0179057 0 0 0 0.00116418 0 0 0 0 0.012206 0 0 0 0 0 0 0 0 0.0272584 0 0 0 0 0 0 0 0 0 0.0234819 0 0 0 0 0 0 0 0 0 0 0 0 0 0 0 0 0 0 0 0 0 0 0 0 0 0 0 0 0 0 0 0 0 0 0 0.000226747 0 0 0 0 0.0488649 0 0 0 0 0 0 0 0 0 0 0 0 0 0 0 0 0 0 0 0 0 0 0
1625 0 0 0 0 0 0 0 0 0 0 0 0 0 0 0 0 0.00825322 0 0 0 0 0 0 0 0 0 0 0 0 0 0 0 0 0 0 0 0 0 0 0 0 0 0 0 0 0 0 0 0 0 0 0 0 0 0.0011911 0 0 0 0 0 0 0 0 0 0 0 0 0 0 0 0 0 0 0 0 0 0 0 0 0 0 0 0 0 0 0 0 0 0 0 0 0 0 0.0323167 0 0 0 0 0 0
92 0 0 0 0 0.344115 0.156754 0 0.0107537 0.000522566 0 0 0 0 0.0125318 0 0 0 0 0 0 0.348379 0 0 0 0 0 0 1.33604 0.00153795 5.93521 0 0 0.840879 1.34793 0 0 0.175821 0 0 0.825975 0 0 0.126706 0.0710328 0.393654 0 0 0 0 0 1.92843 0 0 0.0318048 1.62996 0.0342996 0 0 0.0158641 0 0 0.0947621 0 0.00306808 0 0 0 0 0.862375 0.524376 0 0 0 0 0 0 0 0 0 0 0 0 4.04944 0 0 0 0.0010545 0.00901337 0 0 0.00140727 0 0 0 0.862694 0 0 0 0 0.00365782
1629 0 0 0 0 0 0 0 0 0 0 0 0 0 0 0 0 0.01321 0 0 0 0 0 0 0 0 0 0 0 0 0 0 0 0 0 0 0 0 0 0 0 0 0 0 0 0 0 0 0 0 0 0 0 0 0 0 0 0 0 0 0 0 0 0 0 0 0 0 0 0 0 0 0 0 0 0 0 0 0 0 0 0 0 0 0 0 0 0 0 0 0 0 0 0 0 0 0 0 0 0 0
1635 0 0 0 0 0 0 0 0 0 0 0 0.0818322 0 0 0 0 0.456089 0 0 0 0 0 0 0 0 0 0 0.0105122 0 1.58497 0 0 0.00384604 0 0 0 0 0 0 0 0 0.029582 0 0 0 0 0 0 0 0 0 0 0 0 0 0 0 0 0 0 0 0 0 0 0 0 0 0 0 0 0 0 0 0 0 0 0 0 0 0 0 0 0 0.0378968 0 0 0 0 0 0 0 0 0 0 0 0.00660222 0 0 0 0
4201 0 0 0 0 0 0 0 0.0327467 0 0 0 0 0.0507255 0 0 0 5.10914 0 0 0 0 0 0 0 0 0 0 0 0 0 0 0 0 0 0 0 0 0 0 0 0 0 0 0 0 0.55924 0 0 0 0 0 0 0 0 0 0 0 0 0 0 0 0 0 0 0 0 0 0 0 0.0793002 0.0173694 0 0 0 0 0 0 0 0 0 0 0 0 0 0 0 0 0 0 0 0 0 0 0 0 0 0 0 0 0
4714 0 0 0 0 0 0 0 0 0 0 0 0 0.0311017 0.0476904 0 0 0.00566088 0 0 0 0 0 0 0 0 0 0 0.0958693 0 0 0 0.310529 0 0 0.0215362 0 0 0.000671663 0 0 0 0.614462 0 0.160013 0 0 0 0 0 0 0 0 0 0 0 0 0.529484 0 0 0 0.0143513 0 0 0 0 0 0 0 0 0 0.368244 0 0 0 0 0.0104459 0 0 0 0 0.119429 0 0 0 0 0 0 0 0 0 0 0 0 0 0 0.245484 0 0 1.19971 0
1648 1.57728 0 0 0 0 0 0 0 1.34636 0.399469 2.45189 1.38977 0.335645 0 0 0 0 0.0498242 0 0.0679998 0 0 0 0 0 0 0 0 0 0 0 0 0 0 0 0 1.26022 0 0 0 0.0539553 0.231143 0 0.119451 0 0 0 0 0 0 4.72453 0 0.0129355 0.000474593 0 0.279497 0 0.331736 0 0 0 0 0 0 0 0 0.956906 0 0 0 0 0 1.19282 0 0 1.33839 5.06753 0 0 0.347834 1.04154 1.98411 0 0 0 0 20.58 0 0.616086 0 0 0 0 0.100411 0 1.58334 0.276776 0 0 0
2161 0 0 0.013543 0.124325 0 0.476694 0.443159 7.13317 0 0 0 0 0.42654 0.502508 0 0 2.11781 0.189827 0.16587 0 0.56734 0 0 0 0 0 0.342365 0 0 0 0 0 0 0 0 0 0.0266299 0 0.127112 0 0.0844565 0 0 0 0 0 0 0 0 0 0 0 4.78594 0 0 0.164214 1.53309 1.97045 0 1.1136 0 0.624207 0 0.56186 0 0.0610706 0 6.71036 0 0.00899499 0 0 0 0 0 0 0 0 0.0599163 0 0 0.404501 1.00273 0 0 0 0 0.487703 0.00227167 0 0.520937 0 0 0 0 0.126425 0 0 0 1.55999
4219 0 0 0 0 0 0 0.002425 0.547486 0 0 0.00358378 0 0 0 0 0 0.0492234 0 0.0473259 0 0 0 0 0.00258626 0 0 0 0 0 0 0 0 0 0.0397864 0 0 0 0 0 0 0 0 0 0 2.09836 2.5518 0 0.000593541 0 1.33753 0 0 0.0289188 0 0 0 0 0 0 0 0 0 0 0 0 0 0 0 0 0 0 0 0 0 0 0 0 12.8211 0 0 0 0.00123558 0.0511985 0 1.66468 0 0.0028333 0 0.00235765 0.244985 0 0 0 0 0 0 0.0341271 0.000297521 0 0
4221 0 0 0 0 0 0 0 0 0 0 0 0 0 0 0 0 0.451789 0 0 0.000710638 0 0 0 0.517548 0 2.16358 0.146374 0 0 0 0 0 0 0 0 0 0 0.000605644 0 0 0.00193189 0 0.000374401 0 0 0 0 0 0 0 0.300137 0.00791619 0 0.156106 0 0 0 0 0 0 0 0.0292044 0 0 0 0 0 0 0 0 0 0 0 0 0 0 0 0 0 0 0 0.0032509 0 0 0 0 0 0 0 0 0 0 0 0 0 0 0 0 0 0.030286
126 0.0948658 1.58391 0 0 0 0 0 0 0 0 0 0.498353 0 0.00853468 0 0 0.0596075 0 0 0 0 0 0 0 0 0 0 0 0.346138 0.000696248 0 0.0668251 0 0.0276666 0 0 0 0.170462 0 0 0 0.0647459 0 0.0158138 0 0.526208 0 0 0 0 0 0 0 0 0 0 0.0934375 0 0.0258041 0 0 0 0 0 0 0 0 0 0 0 0 0 0 0.100525 0 3.8226 0 0 0 0 0 0 0 0.168086 0 0 0.130316 0 0 0 0 0.0436229 0 0.0519005 0 0 0.000213654 0 0 0
1664 0 0 0 0 0 0 0 0 0 0 0 0 0 0 0 0 0 0 0 0 0 0 0 0 0 0 0 0 0 0 0 0 0 0 0 0 0 0 0 0 0.000444134 0 0 0 0 0.0659105 0 0 0 0 0 0.00469461 0 0 0.000815918 0 0 0 0 0 0 0 0 0 0 0 0 0 0 0 0 0 0 0 0 0 0 0 0 0 0 0 0 0 0 0 0 0 0 0 0 0 0 0 0 0 0 0 0 0
1669 0 0 0 0 0 0 0 0.00462239 0 0 0 0 0 0 0 0 0.144309 0 0 0 0 0 0 0 0 0.117077 0 0 0 0 0 0 0 0 0 0.00109007 0 0 0 0 0 0 0 0 0 0 0 0 0 0 0 0 0 0 0.00057059 0 0 0 0 0 0 0 0 0 0 0 0 0 0 0.00579529 0.124558 0 0 0 0 0.00190664 0.000493311 0 0 0.00134651 0 0 0 0 0 0 0 0 0 0 0 0 0.00169985 0 0 0 0 0 0 0
1679 0 0 0 0 0 0 0 0 0 0 0 0 0 0 0 0 0.00027806 0 0 0 0 0 0 0 0 0 0 0 0 0 0 0 0 0 0 0 0 0 0 0 0 0 0 0 0 0.0456801 0 0 0 0 0 0 0 0 0 0 0 0 0 0 0 0 0 0 0 0 0 0 0 0 0 0 0 0 0 0 0 0 0 0 0 0 0 0 0 0 0 0 0 0 0 0 0 0 0 0 0 0 0 0
4244 0 0 0 0 0 0 0 0.051401 0 0 0 0 0 0 0 0 0.00828052 0 0 0 0 0 0 0 0 0.0127172 0 0 0 0 0 0 0 0 0 0 0 0 0 0 0 0 0 0 0 0 0 0 0 0 0 0 0 0 0.183753 0 0 0 0 0 0 0 0 0 0 0 0 0 0 0.000289754 0 0 0 0 0 0 0 0 0 0 0 0 0 0 0 0 0 0 0 0 0 0 0 0 0 0 0 0 0 0
1693 0 0 0 0 0 0 0 0 0 0 0 0 0 0 0 0 0.185407 0 0 0 0 0 0 0 0 0 0 0 0 0 0 0 0 0 0 0 0 0 0 0 0 0 0 0 0 0 0 0 0 0 0 0.00163483 0 0 0 0 0 0 0 0 0 0 0 0 0 0 0 0 0 0 0 0 0 0 0 0 0 0 0 0 0 0 0 0 0 0 0 0 0 0 0 0 0 0 0 0 0 0 0 0
1703 0 0 0 0 0 0 0 0.0140987 0 0 0 0 0 0 0 0 0 0 0 0.381597 0.0238907 0 0 0 0 0 0 0 0 0 0 0 0 0 0.400667 0 0.0766583 0 0 2.33781 0 0 0 0.0867476 0 0.359457 0.0400961 0 0 0 0.00659118 0.0241827 0 0 0 0 0 0 0 0 0 0 0 0 0 0.0658996 0 0.0103122 0.663605 0 0 0 0.62441 0 0.577287 0.0674815 0 0.026367 0 0 0 0.0162624 0.236508 0.00033143 0 0 0 0 0.67677 0 0 0 0 0 0 0 0 0 0.00118544 0.098382
3243 0.0223224 0 0 0.383401 0 3.61652 0 0 0 2.08525 0 0 0.0293248 0 0 0 0 0.0467386 0.999245 0 4.40152 0 0 0 0.649978 0.0170948 0.0442514 0.0862301 0.0171007 0 0 0.142288 0.253827 1.15982 0 0.211093 0 0 0 0.312419 0 0 0.0658568 0.106761 0.175423 0 1.90238 5.60382 0 0.320597 0 0.30949 0 4.06455 4.96864 0 0 0 0 0 0.0120991 1.2168 0.0346679 0 0 3.61405 0 0 0 0 0 0.194051 0 0 3.96178 0 1.30412 0.599884 0 0 0.113224 1.05847 5.76274 0 0 49.1767 0 0 0.000942576 0 0 0 4.2739 0 0 0 0 0.908285 0 0.160128
3247 0.380301 0 0 0 0.221863 0 0 0 0.000215176 0 0 0.282033 0 0 0 0.3027 0.00320092 0 0 3.71884 0 0 0 0 0 0 0 0 0.0140892 0.0295058 0 0 0 0 0 0 0 0 0 0 0 0.945592 0 0 0 0.213578 0 0 0 0 0 0 0 0 0 0 0.0227994 0 0.00248599 0 0 0 0 0 0 0 0 0 0 0 0 0 0 0 0 0.758971 0.0466419 0.00360959 0 0 1.64961 0 0.307154 0.378324 0 0 0 0 0 0 0 0 0 0 0 0 0 0 0 0
4271 0 0 0 0.164106 0 0 0 0 0 0 0 0.00750973 0 0 0.212319 0 0.00537382 0 0.0534843 0 0 0 0 0 0 0 0 0 0 0 0 0 0 0 0 0 0.127191 3.46491 0 0 0 0 0.197037 0 0 0 0.0205335 0 0 0 0 0.00821742 0 0 0 0 0 0 0 0 0 0 0 0 0 0 0 0 0.00220765 0 0 0 0.175342 0 0.322561 0.136933 0 0 0 0 0 0 0 0.0984855 0 0 0 0 0 0 0 0 0 0 0 0 0 0 0 0
1716 0.123637 0 0 0 0 0 0 0.0004542 0 0 0 0.313154 0 0 0 0.0621617 0.835373 0 0.00810236 0 0 0 0 0 0 0 0 0.192153 0.528166 0.0637756 0 0 0 0 0 0 0 0 0 0 0 0.00243969 0 0 0 0 0 0.00223535 0 0 0.0339383 0 0 0 0 0 0 0.236209 0 0 0 0 0 0.0217731 0 0 1.09209 0 0 0 0 0 0 0.00773034 0 0 0 0 0 0 0 0 0 0.939758 0.00533974 0 0 0 0 0 0 0 0 0.962502 0 0 0 0 0 0
694 0 0 0 0 0 0 0 1.1545 0 0 0 0 0 0 0 0 0 0 0 0 0 0 0 0 0 0.892326 0 0 0 0 0 0 0 0.685904 0 0 0 0 0 0 0 0 0 0 0 0 0 0 0 0 0 0.45099 0 0 0.0300994 0 0 0 0 0 0 0 0 0 0 0 0 0 0.760401 0.935998 0 0 0 0 0 0 0.852958 0 0 0.132128 0 0 0 0.269569 0 0 0 0 0 0 0 0 0.25174 0 0 0 0 0 0 0
1720 0 0 0 0 0 0 0 0 0 0 0 0 0 0 0 0 0 0 0 0 0 0 0 0 0 0 0 0 0 0 0 0 0 0 0 0 0 0 0 0 0 0 0 0 0 0.151165 0 0 0 0 0 0 0 0 0.00128825 0 0 0 0 0 0 0 0 0 0 0 0 0 0 0 0 0 0 0 0 0 0 0 0 0 0 0 0 0 0 0 0 0 0 0 0 0 0 0 0 0 0 0 0 0
4281 0 0 0 0 0 0 0 0 0 0 0 0 0 0 0 0 4.99335 0 0 0 0 0 0 0 0 0 0 0 0 0 0 0 0 0 0 0 0 0 0 0 0 0 0 0 0 0 0 0 0 0 0 0 0 0 0 0 0 0 0 0 0 0 0 0 0 0 0 0.0101568 0 0.316557 0 0 0 0 0 0 0 0 0 0 0 0 0 0 0 0 0 0 0 0 0 0 0 0 0 0 0 0 0 0
1724 0 0 0 0 0 0 0 0 0 0 0 0.250958 0 0 0 0 0.0109609 0 0 0 0 0 0 0 0 0 0 0 0 0 0 0 0 0 0 0 0 0 0 0 0 0 0 0 0 0 0 0 0 0 0 0 0 0 0 0 0 0 0 0 0 0 0 0 0 0 0 0 0 0 0 0 0 0 0 0 0 0 0 0 0 0 0 0 0 0 0 0 0 0 0 0 0 0 0 0 0 0 0 0
192 0 0 0 0 0 0 0 0 0.0117512 1.07902 0 3.9461 0 0 0 0.030443 2.23192 0 0 0 0 0 0 0 0 0 0 0 0.170423 0 0 0 0 0 0 0 0 0 0 0 0 0 0 0 0 2.99738 0 0 0 0 0 0.00845035 0 0 0 0 0 0 0 0 0 0 0 0.00694711 0 0 0.147223 0 0 0 0 0 0 0 0 0 0 0 0 0 0 0 0 0 0 0 0 0 0 0 0 0 0 0 0 0 0 0 0.455592 0
1736 0 0 0 0 0 0 0 0 0 0 0 0 0 0 0 0 0.00820669 0 0 0 0 0 0 0 0 0 0 0 0 0 0 0 0 0 0 0 0 0 0 0 0 0 0 0 0 0 0 0 0 0 0 0 0 0 0 0 0 0 0 0 0 0 0.809604 0 0 0 0 0 0 0 0 0 0 0 0 0 0 0 0 0 0 0 0 0 0 0 0 0 0 0 0 0 0 0 0 0 0 0 0 0
1739 0 0 0 0 0 0 0 0 0 0 0 0 0 0 0 0 0.0232885 0 0 0 0 0 0 0 0 0 0 0 0 0 0 0 0 0 0 0 0 0 0 0 0 0 0 0 0 0 0 0 0 0 0 0 0 0 0 0 0 0 0 0 0 0 0 0 0 0 0 0 0 0 0 0 0 0 0 0 0 0 0 0 0 0 0 0 0 0 0 0 0 0 0 0 0 0 0 0 0 0 0 0
717 0.420395 0 0.00298398 0 0 0 0 0 0.0122754 0.321237 0 0.0815579 0.000922263 0 0 0 0 0 0 0 0 0 0.0034151 0 0 0 0 0 0.0590612 0 0 0 0 0 0 0 0 0 0 0 0 0 0 0.0268021 0 0.0666808 0 0 0 0 0 0 0 0 0 0 0 0 0.132447 0 0 0 0.0162943 0.0246953 0.139081 0 0.00280833 0 0 0 0 0 0 1.11392 0 0 0 0.000693375 0 0 1.24133 0 0 0.239954 0 0 0.0289282 0 0 0 0 0 0 0 0 0 0 0 0 0
2255 0 0.0981238 0 0 0.0501986 0.012659 0 0 0 0 0 0.260627 0 0 0 0 0.030326 0 0 0.470395 0 0 0 0 0 0 0 0.178455 0.140996 0.4876 0 0 0 0.139957 0 0 0 12.4592 0 0 0 0 0.0146281 0.22324 0 0.379233 0 0 0 0 0.132609 0.22798 0 0 0 0 0 0 0 0 0.000196251 0 0 0 0.119698 0 0 0 0 0.264658 0 0.000145544 0 0 0 1.1175 0 0 0 0 0.753549 0 0.00155345 0 0 0 0 0 0 0 0 0 0 0 0.0609757 0 0 0 0 0
1237 0 0 0 0 0 0 0 0 0 0 0.613227 0 0 0 0 0 0.369386 0 0 0 0 0 0 0 0 0 0 0 0.896992 0 0 0 0 0 0 0 0 0 0 0 0 0 0 0 0 0 0 0.00386362 0 0 0 0 0 0 0 0.153894 0 0 0 0 0 0 0 0 0 0 0 0 0 0 0 0 0 0 0 0 14.2223 0 0.00772203 0 0 0 0 0 0 0 0 0 0.251989 0 0.152556 0 0 0 0 0 0 0 0 0
1769 0 0.0130343 0 0 0 0.00366187 0 0 0 0 0 0 0 0 0 0 0 0 0 0 0 0 0 0 0 0 0 0 0 0 0 0 0 0.255124 0 0 0 0 0 0 0 0 0 0 0 0.316476 0 0 0 0 0 0 0 0 0 0 0 0 0 0 0.00539507 0 0 0 0 0 0 0 0 0 0.0164862 0.225246 0 0.0708176 0 0 0 0 0 0 0 0 0 0 0 0 0 0 0 0 0 0 0 0.0267414 0 0 0 0 0.0204564 0
3828 0 0 0 0 0 0 0.0215452 0.0674113 0 0 0.0158697 0 0 0 0 0 0 0 0 0 0 0 0 0 0 0.0363966 0 0 0 0 0 0 0 0 0.0323353 0 0.00504329 0 0 0 0 0 0 0 0 0.0483807 0 0 0 0 0.0399686 0.0222895 0 0 0 0 0.0012248 0.0862815 0 0.544484 0 0 0 0 0 0 0 0 0 0.0227832 0 0 0 0.0137087 0.27667 0 0 0 0 0.00432511 0 0 0 0.0545973 0 0 0 0.0961396 0.12072 0 0 0 0 0 0 0 0 0 0.0045578 0
3832 0 0 0 0 0 0 0 0 0 0 0 0 0 0 0 0 1.02421 0 0 0 0 0 0 0 0 0.090305 0 0 0 0 0 0 0 0 0 0 0 0 0 0 0 0 0 0 0 0 0 0 0 0 0 0.023462 0 0 0 0 0 0 0 0 0 0 0.0158798 0 0 0 0 0 0 0 0 0 0 0 0 0 0.0704156 0 0 0 0 0 0 0 0 0 0 0 0 0 0 0 0 0 0 0.0104659 0 0 0 0
3840 0 0 0 0 0 0 0 0 0 0 0 0 0 0.000950457 0.770807 0 0.0301929 0 0 0 0 0 0 0 0 0 2.45371 0 0 0 0 0 0 0.467749 0 1.4417 0 0 0 0.0789152 0 0 0 0 0.157475 0.00969937 0 0 0 0 0.0260497 0 0 0.00459265 0 0 0 0 0 0 0 0 0 0 0 0 0 0.0244177 0 0 0 0 0 0 0.242159 0.00070212 0 0 0 0 0 2.76634 0 0 0 0.00203779 0 0 0 0 0 0 0 0 0.0201006 0 0 0 0 0
773 0 0 0 0 0 0 0 0 0 0 0 0 0 0 0 0 0 0 0 0 0.80258 0 0 0 0 0 0 0 0 0 0 0.434546 0 0 0 0 0 0 0 0 0 0 0 0 0 0.0721544 0 0 0 0 0 0.840903 0 0 0 11.3775 0 0 0 5.19194 0 0 0.426479 0 0.0414195 0 0 0 0 0 0 0 0 0 0 0 35.4707 1.30805 0 0 0 0 0 0 0 0 0 0 26.8362 0 0 0 0 0.00137391 0 0.562432 0 0 0 0
4876 0 0 0 0 0 0 0 0 0.463018 0.0413005 0 0 0 0 0 0.00102363 0 0 0 0 0 0 0 0 0 0 0 0 0.178948 0.404684 0 0.0514592 0.00308351 0 0 0 0 0 0 0 0 0.507343 0 0 0 0.15474 0 0 0 0 0 0.287758 0 0 0 0 0 0 0 0 0 0 0 0.0804415 0 0 0 0 0 0 0 0 0 0.029933 0 0 0 0 0 0 0 0 0.247628 0 0 0 0 0 0 0.00890363 0 0 0 0 0 0.0232068 0 0 0 0
4882 0 0 0 0 0.00273438 0.0142298 0 0 0 0 0 0 0 0 0 0 0.106754 0 0 0 0 0 0.438458 0 0.423262 0.0142657 0 0 0 0 0 0 0.0827448 0 0 0 0.00252188 0 0.00190208 0 0.203771 0 0 0 0 0.334505 0 0 0 0 0 0.238299 0.230277 0 0 1.53423 0 0 0 0.00160318 0 0 0.0185416 0.00426239 0.00779425 0 0 0 0 0 0.0652356 0 0 0.0607651 0 0 0 0 0 0 0 0 0.0414332 0.000399228 0 0.00025622 0 0 0 0.422486 0 0 0.00170886 0 0 0 0 0 0 1.49877
3862 0 0 0 0 0 0 0 0.67487 0 0.0534445 0 0.0735407 0 0 0 0 0 0.00611809 0 0 0 0 0 0 0 0 0 0.0107174 0 0 0.061561 0.0573327 0 0 0 0 0 0.0429244 0 0 0 0 0 1.29461 0 0.173038 0 0 0.00502269 0 0 0.0586751 0 0 0 0 0.167532 0 0.054015 0 0 0 0 0 0 0 0 0 0 0.227906 0.00298207 0 0.0171616 0 0 0 0.525056 0 0 0 0.00575469 0 0 0.100604 0.523265 0 0 0 0.0980144 0 0 0 0 0 0.00378095 0 0 0 2.73685 0
2839 0 0 0.0197714 0 0 0 0 0.126962 0 0 0.159759 0 0 0 0.14458 0 0.00873786 0 0 0 1.10468 0.237065 0 0 0 0.0759182 0.254197 0 0.00154502 0 0 0 0 0 0.361779 0.0668148 0.187572 0.0137456 0 0.376309 4.32548 0 0 0 0 0 0 0.117512 0 0.213371 0.00456711 0.0584276 0.969017 0.218364 0.0832909 0.0983004 0 0 0.0649997 0 0 0 0 0 0 0 0 0.513771 0 0.0626106 0 0.00848385 0 0 0.37325 0 0.123004 0 0.193393 0.0123156 0 0 0 0.00843821 0 0 0 0 0.0742841 0 0.39868 0 0.0175033 0 0 0 0 0.101747 0 0.0671584
3876 0 0 0 0 0 0 0 0.0128322 0 0 0 0 0 0 0 0 0.111285 0 0 0 0 0 0 0 0 0.00227247 0 0 0 0 0 0 0 0 0 0 0 0.0018684 0 0 0 0 0 0 0 0 0 0 0 0 0 0.123258 0 0 0 0 0 0 0 0 0 0 0 0 0 0 0 0 0 0 0 0 0 0 0 0 0 0 0 0 0 0 0 0.0420715 0 0 0 0 0.00115376 0 0 0 0 0 0 0 0 0 0 0
3900 0 0 0 0 0 0 38.8095 0 0.54661 0 0 0 0.989433 0 0.725967 0 3.92668 0 0 0 0.00447035 0 0 0.0161361 0.0706786 0.0207242 0 0 0 0 0 0 0 0.0534769 0 0.00197905 0 0.000734562 0 2.31823 2.75706 0 0 0 0 0 0 0 0 0.0503498 0 0 1.76809 2.21898 0 0.0026418 0 0 0 0.00129609 0 0 0 0 0 0.00242235 0 0.00301916 0 0 0 0 0 0 2.29169 0 0 0 0.891967 0 0 0 0 0 0 0 0 4.02923 0 0 0 0 0 0 0.00200201 0.00176254 0 0 0 0.00373363
834 0 0 0 0 0 0 0 0 0 0 0 0.00441259 0 0 0 0.00143869 0.00759483 0 0 0 0 0 0 0 0 0 0 0 0 0 0 0 0 0 0 0 0 0 0 0 0 2.35626 0 0 0 0.531259 0 0 0 0 0 0.90535 0 0 0 0 0 0 0 0 0 0 0 0 0 0 0 0 0 0 0 0 0 0 0.000527628 0 0 0 0 0 0 0 0 0 0.00068227 0 0 0 0 0 0 0 0 0 0 0 0 0 0.000128362 0
1348 0.0021772 0 0.00379207 0 0 0 0 0 0 0 0 0 0 0 0 0 0 0 0 0 0 0 0 0 0 0.0144263 0 0.0582635 0 0.0308176 0 0 0 0 0 0 0 0.0525596 0 0 0 0 0.0434201 0 0 179.293 0 0 0 0 0 10.3374 0 0 0 0 0 0 0.0643084 0 0 0.000818804 0 0.133925 0.0860684 0 0 0 0 0.0114652 0 0.019729 0 0 0 0 0 0 0 0 0.332019 0 0.183328 0.000326874 0 0 4.18889 0 0 0 1.44559 0 0 0 0 0 0 0 0 0
837 0 0 0 0 0 0 0 0 0.00311155 0 0 0.0435012 0 0 0 0.0861067 0.0323908 0 0 0 0 0 0 0 0 0 0 0.00011233 0.000358682 0 0 0 0.0008051 0 0 0 0 0 0 0 0 0.00146432 0 0 0 0 0 0 0 0 0 0.000595066 0 0 0 0 0 0 0 0 0 0 0 0 0 0 0 0 0 0 0 0.0595284 0 0 0 0 0 0 0 0 0 0 0 0 0.092707 0 0 0 0 0 0 0 0 0 1.45096 0 0 0 0 0
4426 0 0 0 0 0 0 0 0 0 0.0145304 0.00962891 0.270469 0 0 0 0 0.00823144 0 0 0 0 0 0 0 0 0.468966 0 0 0 0 0 0 0 0 0 0.364701 0 0 0 0 0 0 0 0 0 0 0 0 0 0 0 0 0 0 0 0 0 0 0 0 0 0 0.00232939 0 0 0 0 0 0 0.486866 0 0 0 0 0 0 0 0 0 0 0 0 0 0 0.402447 0 0 0 0 0 0 0 0 0 0 0.0124046 0 0 0 0
2892 0 0.0105106 0 0 0 0 0 0 0 0 0 0 0 0 0 0 0.0803333 0 0 0 0 0 0 0 0 0 0 0 0 0.0905103 0 0 0 0 0 0 0 0 0 0 0 0 0 0 0 0 0 0 1.58284 0 0 0.00104368 0 0 0 0 0 0 0 0 0.143136 0 0 0 0 0 0 0 0 0 2.19169 0 0 0 0 0 0 0 0 0 0 0 0 0 0 0 0 0 0 0 0 0 0 0 0.000140746 0 0 0 0 0
3920 0 0 0 0 0 0 0 0.270247 0 0 0 0.0176247 0 0 0 0 0.00725658 0 0 0 0 0 0 0 0 0.215462 0 0 0 0 0 0 0 0 0 0 0 0 0 0 0 0 0 0 0 0.0156328 0 0 0 0 0 0.000271143 0 0 0 0 0 0 0 0 0 0 0 0 0 0 0 0 0 0.132165 0 0 0 0 0 0 0 0 0 0 0 0 0 0 0 0 0 0 0 0 0 0 0 0 0 0 0 0 0 0
3923 0 0 0 0 0 0 0.00162729 0.0282269 0 0 0 0.00281432 0 0 0 0 0.0894754 0 0 0 0 0 0 0 0 0.0388346 0 0.0222906 0.0112813 0.00605572 0 0 0.00269339 0 0 0.281274 0 0.284617 0 0 0 0 0 0.00703849 0 0.328998 0 0 0 0 0.0758229 0.00456856 0 0 0 0 0 0 0 0 0 0 0 0 0.144105 0 0.0282478 0 0 0 0 0 0 0 0 0 0 0 0 0 0 0 0 0 0 0 0 0 0 0 0 0 0 0.00171695 0 0 0 0 0.00445618 0
852 0 0.00153264 0 0 0 0 0 0 2.51807 0 0 0 0.00815023 0 0 0 1.45317 0 0 0 0 0 0 0 0 0 0 0 0 0 0 0 0 0 0 0 0 0 0 0 0 0.0294852 0 0.00056959 0 0 0 0 0 0 0 0 0 0 0 0 12.1342 0 0 0 0 0 0.48436 0 0 0 0.024196 0 0 0 0 0 0 0 0 0 0 0 0 0 0 0 0 0 0 0 0 0 0 0 0 0 0 0 0 0 0 0 0.227967 0
3926 0 0 0 0 0 0 0 0 0 0 0 0.0068333 0 0 0 0 0.00799963 0 0 0 0 0 0 0 0 0.150565 0 0 0 0 0 0 0 0 0 0 0 0 0 0 0 0 0 0 0 0 0 0 0 0 0 0 0 0 0 0 0 0 0 0 0 0 0 0 0 0 0 0 0 0 0.0538137 0 0 0 0 0 0 0 0 0 0 0 0 0 0 0 0 0 0 0 0 0 0 0 0 0 0 0 0 0
2392 0 0 0 0 0 0 0 0 0.0765557 0.0136786 0 0 0 0 0 0 0.199285 0 0 0 0 0 0 0 0 3.56991 0 1.15819 0 0 0 4.7697 0 0 0.000521463 0 0.0417492 0 0 0 0 0 0 0 0 0 0 0 3.81031 0 2.8838 0 0 0 0 0 0 0 0.103259 0 0.0162309 0 0 0.358372 0 0 0 0 0 0 0 0.382469 16.8591 0 0 0 0 0 0 0 0 0 0 0 0 0 0 0 0 0 0 0 0 0.0729233 0 0 0 0 0 0
4452 0.274503 0 0 0 0 0 0 0 0.0522482 0 0 0 0 0 0 5.51517 4.74208 0 0 0 0 0 0 0.196671 0 0.475087 0 0 0 0.651172 4.33359 0 1.25536 0.0863248 0 0.22237 0 0.344004 0 0.395108 0.857814 0 0 0.109642 0 2.0025 0 0 0 0 0.220857 0 0 0 0 0 1.94838 0 0 0 0 0 1.38275 0 0 0 1.74058 0 0.0734102 0 0 0 0 0.51815 0 10.0763 0 0 0 0 5.66407 0 0 0.69446 0 0 0 0 0 0.0763495 0 0 0 0.207878 0 0 0 0 0 0
2920 0 0 0 0 0 0 0 0.0225799 0 0 0 0 0 0 0 0 0 0 0 0 0 0 0 0 0 0.00448587 0 1.32834 0 0 0 0 0 0 0 0 0 0 0 0 0 0 0 0 0 0 0 0 0 0 0 0 0 0 0.0146179 0 0 0 0 0 0 0 0 0 0 0 0 0 0 0.00323379 0 0 0 0 0 0 0 0 0 0.000713388 0 0 0 0 0 0 0 0 0.0757361 0 0 0 0.00871252 0 0 0.0254358 0 0 0 0
3953 0 0 0 0 0 0 0 1.3093 0 0 0 0 0 0 0 0 0.0466635 0 0 0 0 0 0 0 0 0.415254 0 0 0 0 0 0 0 0 0 0 0 0 0 0 0 0 0 0 0 0 0 0 0 0 0 0 0 0 0 0 0 0 0 0 0 0 0 0 0 0 0 0 0 0 0 0 0 0 0 0 0 0 0 0.0127202 0 0 0 0 0 0 0 0 0 0 0 0 0 0 0 0 0 0 0 0
2426 0 0 0 0 0 0 0 0 0 0 0 0 0 0 0 0 0.00827191 0 0 0 0 0 0 0 0 0 0 0 0 0 0 0 0 0 0 0 0.126585 0 0 0 0 0 0 0 0 0.0141937 0 0 0 0 0 0.0832876 0 0 0 0 0 0 0 0 0 0 0.00334159 0 0 0.0187594 0 0 0 0 0 0 0 0 0 0 0 0 0 0.00440486 0 0 0 0 0 0 0 0 0 0 0 0 0 0.0831127 0 0.017943 0 0 0 0
3986 0 0 0 0 0 0 0 0.0607172 0 0 0 0.00735601 0 0 0 0 0 0 0 0 0 0 0 0 0 0.00514928 0 0 0 0 0 0 0 0 0 0 0 0 0 0 0 0 0 0 0 0.100971 0 0 0 0 0 0 0 0 0 0 0 0 0 0 0 0 0 0 0 0 0 0 0 0 0 0 0 0 0 0 0 0 0 0 0 0 0 0.0109538 0 0 0 0 0 0 0 0 0 0 0 0 0 0 0 0
1433 0 0 0 0 0 0 0 0.037294 0 0 0 0.0111821 0 0 0 0 0.53494 0 0 0 0 0 0 0 0 0 0 0 0 0 0 0.764398 0 0 0 0 0 0.00342387 0 0 0 0 0 0 0 0 0 0 0 0 0 0 0 0 0.00395809 0 0 0 0 0 0 0 0 0 0 0 0 0 0 0.0249559 0 0 0 0 0 0 0 0 0 0.00386623 0 0 0 0 0 0 0 0 0 0 0 0 0 0 0 0 0 0 0 0
2465 0 0 0 0 0 0 0 0 0 0 0 0 0 3.38076 0 0 3.72777 0.111376 2.07 0 0 0 0 0 3.52004 0 0 0.083309 0 0 0 0 0 0.388022 0 0 0 0 0 0.545156 0 0 0 0 0.777361 0 0 0 0 0 0 0 0.908001 2.07066 0 0 0 0.375481 0 0.77227 0 0.431083 0 0.0712154 0 0 0 0.0217879 2.91571 0 0 0 0.0130468 0 0 0 0 0 0.0593949 0 0.350371 0 5.447 0 1.32196 0 0 0 1.83322 0 0 0 0.7801 0 1.46357 0 3.36216 0 0 0
4010 0 0 0 0 0 0 0.000376336 0.0421727 0 0 0 0 0 0 0 0 0.0101973 0 0 0 0 0 0 0 0 0.0105862 0 0 0 0 0 0 0 0 0 0 0 0 0 0 0 0 0 0 0 0 0 0 0 0 0 0.00822519 0 0 0 0 0 0 0 0 0 0 0 0 0 0 0 0 0 0.0171194 0 0 0 0 0 0 0 0 0 0 0 0 0 0 0 0 0 0 0 0 0 0 0 0 0 0 0 0 0 0
3514 0 0 0.0320296 0 0 0.61336 0 3.09636 0.464074 0 0 0.21977 0 0 0 0 1.96948 0 0 0 0 0 0 1.91523 0 0.602588 0 0 0.41164 1.48365 1.12976 3.09748 0 0 0 0 0 0.400634 0 3.93301 0 1.61666 0 0.495444 0 0 0 0 0 0 1.52583 0 0 0 0.149781 0.121165 0 0.460454 0 0 1.02777 0 0 0 0 0 0.968598 0 0 0 1.28282 0 0.670546 0.342134 0 1.28295 0 0 0 0.149219 0 0 0 0 0 0 0.937032 0 0 0 0 0 0 2.11135 0 0 0 0 1.29752 0
4028 0 0 0 0 0 0 0 0 0 0 0 0 0 0 0 0 0 0 0 0 0 0 0 0 0 0 0 0 0 0 0 0 0 0 0 0 0 0 0 0 0 0 0 0 0 0.513866 0 0 0 0 0 0.0748824 0 0 0.135726 0 0 0 0 0 0 0 0 0 0 0 0 0 0 0 0 0 0 0 0 0 0.447477 0 0 0 0 0 0 0 0 0 0 0 0 0 0 0 0 0 0 0 0 0 0 0
4045 0 0 0 0 0 0 0 0.0220054 0 0 0 0.0834313 0 0 0 0 0 0 0 0 0 0 0 0 0 0 0 0 0 0 0 0 0 0 0 0 0 0 0 0 0 0 0 0 0 0.44968 0 0 0 0 0 0 0 0 0 0 0 0 0 0 0 0 0 0 0 0 0 0 0 0.00945942 0 0 0 0 0 0 0 0 0 0 0 0 0 0 0 0 0 0 0.00472565 0 0 0 0 0 0 0.000359769 0 0 0 0
4050 0 0 0 0 0 0 0 0.00649701 0 0 0 0 0 0 0 0 0.00788871 0 0 0 0 0 0 0 0 0 0 0 0 0 0 0 0 0 0 0 0 0 0 0 0 0 0 0 0 0.0267635 0 0 0 0 0 0 0 0 0 0 0 0 0 0 0 0 0 0 0 0 0 0 0 0.0528878 0 0 0 0 0 0 0.0947258 0 0 0 0 0 0 0 0 0 0 0 0.000930291 0 0 0 0 0 0 0 0 0 0 0
1491 0 0 0.414445 2.42191 0 0 0.00523005 0.0788113 0 0 0 0 0 0 0 0 1.99328 0 0 0 0.153318 11.3904 0 0 0.506635 0 0 0 0 0 0 0 0 0 4.62463 0.137973 0 0 0.136175 0 0 0 0 0 0 0 0 0 0 0 0.193874 0.0330874 0 0.130876 0 0 0 0 0 2.25934 0 0.335725 0 0 0 0 0 0 0 0 0 0 0 1.40891 0 0 0 0.567041 0 0 0 0.963885 5.80311 0 0 0 0 1.70483 0 0 0 0 0 0 0 0 0 0 0 0
4571 0.049709 0 0 0 0 0 0 2.15064 0.00237455 0 0 0.0940477 0 0 0 0 0.0849994 0 0.00421744 0 0 0.0201933 0 0 0 0 0 0 0.000468632 0 0 0 0 0 0 0 0.233318 0 0 0 0.0242532 0.00906475 0 0.00194848 0 11.6244 0 0.0200559 0.00948941 0 1.68205 0 0 0 0 0 0 0 0 0 0.000874311 0 0.0635395 0 0 0.0316402 0.051302 0 0 0 0 0 0 0 0 0.0100843 0 0 0 0 0 0 0 0.165162 0 0.0532037 0 0 0 0 0 0 0 0 0 0 0 0 0.0508436 0
4061 0 0 0 0 0 0 0 0 0 0 0 0 0 0 0 0 0.0526203 0 0 0 0 0 0 0 0 0 0 0 0 0 0 0 0 0 0 0 0 0 0 0 0 0 0 0 0 0 0 0 0 0 0 0 0 0 11.7679 0 0 0 0 0 0 0 0 0 0 0 0 0 0 0 0 0 0 0 0 0 0 0 0 0 0 0 0 0 0 0 0 0 0 0 0 0 0 0 0 0 0 0 0 0
994 0 0 0 0 0 0 0 0 0 0 0 0.0259381 0 0 0 0.114162 0.0104053 0 0 0 0 0 0 0 0 0 0 0 0 0.000240385 0 0 0 0 0 0 0 0 0 0 0 0 0 0 0 0 0 0 0 0 0 0 0 0 0 0 0 0 0 0 0 0 0 0 0 0 0 0 0 0 0 0 0 0 0 0 0 0 0 0 0 0 0 0 0 0 0 0 0 0 0 0 0 0.0267947 0 0 0 0 0 0
1521 0 0 0 0 0.0342409 0 0.000257462 0 0 0 0 0 0 2.11497 0 0 0.0103866 0 0 0.00283897 0 0 0 0 0 0 0 0 0 0 0.00926067 0 0.031465 0.00149382 0 0 0 0 0 0 0 0 0 0 0 0 0 0 0 0 0 0 0 0 0 0 0.00116267 0 0 0 0 0 0 0 0 0 0 0 0 0 0 0 0 0 0 0 0 0 0 0.000279556 0 0 0 0 0 0 0 0 0 0 0 0 0 0 0.0551514 0 0 0 0 0
3061 0 0 0 0 0.384602 0.49204 0 0 0.00072089 0.460471 0 0 0 0.000461779 0 0.0391166 0.00859662 0 0.000707837 0 0 0 0 0 0 0 0 0 0.21689 0 0 0 0.233579 0 0 0.34296 0 0.381129 0 0 0 0 0 0 0 0 0 0 0 0 0 0.100092 0 0 0 0 0 0 0 0 0.192473 0 0 0.338281 0 0 0 0 0 0.305897 0 0 0 0 0 0.0436654 0 0 0 0 0 0 0 0 0 0 0.00664363 0 0 0 0.046766 0.506763 0 0 0 0 0 0 0 0
1532 0 0 0 0 0 0 0 0 0 0 0 0 0 0 0 0 0.53848 0 0 0 0 0 0 0 0 0 0 0 0 0 0 0 0.0134059 0 0 0 0 0 0 0 0 0 0 0 0 0 0 0 0 0 1.05099 0 0 0 0 0 0.00109917 0 0 0 0 0 0 0 0 0 0 0 0 0 0 0 0 0 0 0 0 0 0 0 0 0 0 0 0 0 0 0 0 0 0 0 0 0 0 0 0 0 0 0
2049 0 0 0 0 9.80768 0 0.0574829 7.00444 0 0 0.51519 0 0.951809 0 0 1.17833 0 0 0.00220797 3.20917 0 0.0310726 0 0 0 2.13204 0 0 0 0 59.4556 0.000385458 218.281 0 0 2.51536 0 1.62799 0 9.01839 0 0 0 0 0 0 0 0 0.0630508 0 0.990134 0 0 0 0 0 8.02467 0 0 0.186034 0 0 2.01957 0.0152007 0.00015252 0 0 0 0 0 0 0 0.0406776 0 0 0 0 0 0 0 2.55624 0 0 62.1343 0.253704 0 0.00199542 0 0 0 0 0 0 0.226272 0 0 0 0 0 0
1027 0 0.00108817 0.00474442 0 0 0 0 0 0 0 0 0 0.00278857 0.0752022 0 0 1.05238 0 0 1.8209 0 0 0.0359403 0.166075 0 0 0 0 0.147408 0 1.07555 0.192733 0.149084 0 0 0.0373631 0 0 0 0 0 0.0445256 0 0.00619828 0.00705951 0 0 0 0.00272981 0 0.368512 0 0 0 0.240894 0 0 0 0 0 0 0 0 0 0 0.00299269 0.00911142 0 0 0 0 0.251787 0 0 0 0.21366 3.75481 0.0651914 0 0 0 0 0 0 1.27022 0 0.404321 0 0 0 0 0.00837313 0 0 0 0 0.000801406 0 0 0
5 0.269349 0 0 0 0 0 0 0 0 0.0922315 0.479027 0.587068 0 0 0 0 0 0 0 0 0 0 0 0 0 0 0 0.322156 0 0 6.45816 0 0 0 0 0 0 0 0 0 0 0 0 4.90233 0 0 0 0 0 0 0.269007 4.23762 0 0 0 0 0.387389 0 0 0 0.104684 0 0.094072 0 0 0 0 0 0 0 0 0 0.329528 0 0 0 0 0 0 0 0 0 0 0 0 0 14.7992 0 0 0 0 0 0 0 0 0 0 0 2.19262 0
524 0.0540158 0 0 0 0 0 0 0 0 0 0 0 0 0 0 0 0 0 0 0 0 0 0 0 0 0 0 0 0 0 0 0 0.0994284 0 0 0.471858 0 0 0 0 0 0 0 0 0 0.105825 0 0 0 0 0 0 0 0 0 0 0.0958493 0 0 0 0 0 0 0.0484424 0 0 0.121818 0 0.438785 0 0 0 0 0 0 0 0 1.79998 0 0 0 0 0 0 0 0 0 0 0 0.107358 0 0.0634068 0 0 0 0 0 0 0.00358137 0
22 0 0 0 0 0 0.994242 0 0 8.03186 1.66179 0 0 0 0 0 0 0 0 0 0 0 0 0 0 0 0 0 0 0 0 0.385028 0 2.07327 28.2494 0 0.563461 22.7009 0 0 0 0 0 0 0 0 0 0 0 0 0 0 0 0 0 0 0 0 0 0 0 4.80565 0 6.91598 0 0 0 0 0 0 0 0 0 0 0 0 0 2.77045 0.131841 0 8.02796 0 0 0 0 0 0 0 0 0 0 0 0 0 7.42734 0 0.00543375 0 0 0 0
4125 0.296826 0 0 0 0 0 0 0.369888 0.00231604 0 0 0 0 0 0 0 0.001413 0 0 0 0 0 0 0 0 0.3166 0 0 0 0 0 0 0 0 0 0 0 0.0646949 0 0 0 0.151161 0 0 0 0 0 0 0 0 0.0153491 0 0 0 0.038472 0 0 0 0 0 0 0 0 0 0 0 0 0 0 0 0 0 0 0 0 0 0.0142833 0 0 0 0 0 0 0 0 0 0 0 0 0 0 0 0 0 0 0 0 0 0 0
2597 0 0 0 0 0 0 0 0 0 0 0.00514757 2.56986 0 0 0 0 12.7344 0 0 0 0 0 0 0 0.00649841 0 0 0 0 0 0 0 0 0 0 1.28603 0 0.00148789 0 0 0 0 0 0 0 0 0 0 0 0 0 0 0 0 0 0 0 0 0.184762 0 1.08269 0 0.102011 0.00771698 0 0 0 0.303905 0 0 1.73289 0 0 0 0 0 0 0 0 0 0 0 0 0 0 0 0 0 0 0 0 0 0 0 0 0.225702 0 0 0 0
4136 0.00159546 0.695409 0 0 0 0 0 0.0307266 0.00219883 0 0 0.138448 0.0104295 0.0511642 0 0.237156 0.000253118 0 0 0.000824495 0 0.00563517 0 0 0 0.0169022 0 0 0.000366527 0 0 0 0 0 0 0.0048749 0 0.00351493 0 0 0 0 0 0 0 0.000501185 0 0 0 0 0 0.00972991 0 0 0 0 0.42028 0 0 0 0 0 0 0 0 0 0 0 0 0.0197249 0 0.238059 0 0 0 0 0.0282777 0 0 0.000709431 0.00266114 0.00466311 0 0.00676835 0 0 0.000202448 0 0.00462762 0 0 0 0 0.000636457 0 0.000264768 0 0 0.00258364 0
4137 0.410167 0.0113305 0 0 0 0 0 0.243719 0 0 0 0 0 0.00138835 0 0 0 0.00179092 0 0 0 0.271511 0 0 0 0.00999998 0 0 0.0145305 0 0 0 0 0 0 0 0 0.0476777 0 0 0.000113257 0 0 0 0 0 0 0 0 0 0 0 0 0 0 0 0 0 0 0 0 0 0 0 0.0211179 0 0 0 0 0 0 0.227558 0 0 0 0 0 0 0 0 0.00939562 0 0 0 0.0350956 0.0517006 0 0 0.000379445 0.00177661 0 0 0 0.127828 0 0 0 0.00050186 0 0
3624 0 0.000775498 0 0 0.000975512 1.01938 0 0.000110387 0 0 0 0.418883 0 0 0 0 0 0 0.00069623 0.000914866 0.00106405 0 0 0 0 0 0 0 0 0.00878915 0 0 0 0.0121918 0 0 0 0 0.00651776 0 0 0 0 0.00337796 0 0.000117108 0 0 0 0 0.00220304 0 0 0 0 0 31.4158 0 0.0873836 0 0 0 0 0 0 0 0 0 0 0 0 0 0.0580526 0.29371 0 0 0 0 0 0 0 0 0 0.640675 0 0 0.003058 0.00681466 0 0 0 0 0 0 0 0 0 0 0 0
1070 0.0692951 0 0 0 0 0 0 0 0.0290397 0 0.00228221 0 0 0 0 0 0 0 0 0 0 0 0 0 0 61.6725 0 0 0 0 0.0017734 0 0 0.129833 0 0 0.106019 0 0 0 0 0.108262 0 0 0 0 0 0 0 0 3.49191 0 0 0 0 0 0 0 7.5035 0 0.0624525 0 0 0 0 0 0 0 0 0.949563 0.0648432 0 0 0 0 0 0.00214785 0 0.000168905 0.0357648 0 0 0 0.182005 0 0 0 0 0 0 0 0.00985906 0 0.0284928 0 0.012716 0 0 0 0
4150 0 0.396357 0 0 0.00586173 0 0 0 0.0195727 0.0830549 0 0 0 0.249131 0 0.390962 0.593356 0 0.543497 0 0 0 0 0 0 0.140167 0 0.401726 0 0 0 0 0 0.525656 0 0 0 0.707305 0 0 0 0 0.000158559 0 0 0 0 0 0 0 0 0 0 0 0 0.00759568 0 0 0.00575336 0 0 0 0.94486 0 0 0 1.06136 0 0 0 0 0.0116222 0 0 0 0 0 0 0 0 0 0 0 3.26053 0 0 0 0 0 0 0 0 0.110804 0.0853116 0 0 0.233377 0 0 0
3127 0.00265615 0.126586 0.0650748 0 0 0.48368 0 7.82927 0 0 0.00106413 0.0212736 0.176214 0 0 0.550538 0.548632 0 0 0 0 0 0 0 0 0.273573 0 0.0104978 0.806779 0.843942 0 0 0.39364 0 0 3.65804 0 0 0 0 0 0 0 0 0 0.419758 0 0 0 0 0 0 0 0 0.0570273 0 0 0 0 0 0 0 0 0 0 0 0 0 0 0 0.176127 0 0 0.398742 0 0 0.00767943 0 0 0 0 0 0 0.471507 0 0 0 0 0 0 0 0 0 0 0 0 0 0 0.0346903 0
1080 2.25188 0 0 0 0 0 0 0 0 0 0 0 0 0 0 3.70928 0 0 0 1.2408 0 0 0 0 0 0 0 4.97495 2.5988 0 0 0 0 0 0 0.0658427 0 0 0 0 0 0 0 0 0 0 0 0 0 0 0 0 0 0 0.013153 0 0.272369 0 0 0 0 0 0 0 0.0468963 0 0 0.0840664 0 0.085395 0 0 0 0 0 270.661 0.129289 0 0 0 0 0 0 0 0.698329 0 0 0 0 0 0 0 0 0 0 0 0 0 0 0
1082 0 0.826235 0 0 0 0 0 0.923991 0 0 0.0694058 0.754492 0 0.191015 0 0.0180544 0 0 0 0.873012 0 0 0 0 0 0 0 0 0.122802 0.000556254 0 0 0 1.77874 0 0 0 0.217392 0 0 0 0 0 0.0340009 0 0.546043 0 0 0 0 0.361377 0 0 0 0 0.193361 0 0 0 0 0 0 0 0 0 0 0 0 0 0.0142445 0 0 0 2.01664 0 0 0 0 0 0 0 0 0 0 0 0 0.0533286 0 0 0 0 0 0 0 0 0 0 0 0 0
3130 0.232063 0 0 0 0 0.0026043 0 0.01477 0 0.101387 0 0.0587246 0 0.125379 0 0 0 0 0 0.000675215 0.0144944 0 0 0 0 0 0 0 0 0 0 0 0 0.00769479 0 0 0 0 0 0 0.0210737 0 0 0 0 0 0 0 0 0 0 0.536544 0 0 0.00466172 0 0 0.0281503 0.00014877 0 0 0 0.0456335 0 0 0 0.00152963 0 0 0 0 0 0 0.0238973 0 0 0 0 0 0 0 0 0 0 0 0 0 0 0 0.0327521 0 0 0 0 0 0 0 0 0.0197626 0
574 0 0 0 0 0 0 0 0.329024 0 0.186941 0 0.90458 0 1.83499 0 0 0 0.000165778 0 54.8629 0 0 0 0 0 1.67077 0 0 1.18663 0 0 0 13.8801 0 0 0 0 0.836729 0 0 0 0 0 0.861832 0 0 0 0 0 0 0.239024 6.18063 0 0 0 0 0.00518581 0 0 0 0 0 0.268543 0 0 0 0 0 0 0 0.864067 0 0 2.15066 0 0.166481 0 0 0 0 0 0 0 0 0 0 0 0 0.32443 0 0 0.00290566 0 0.0826061 0 0 0 0 0 0
4162 0 0 0 0 0 0 0 0 0 0 0 0.130029 0 0 0 0.167608 0 0 0 0 0 0 0 0 0 0.000385544 0 0 0 0 0 0 0 0 0 0 0 0.285886 0 0 0 0 0 0 0 0 0 0 0.000176771 0 0 0 0 0 0 0 0 0 0.00495764 0.000230262 0 0 0.223036 0 0.00103853 0 0 0 0 0 0 0 0 0.0131782 0 0 0 0 0 0.00058338 0 0 0 0 0 0 0 0 0.000267106 0 0 0 0 0 0 0 0.301682 0 0 0
3140 1.35097 0.133671 0 0 0 0 0 0 0.035423 0 9.70567 2.33359 0 0.00913535 0 0.270898 0 0 0 0 0 0 0 0 0 0 0 0.00883084 0.15108 0 0 0 0 0.381388 0 0 0 0.277472 0 0 0 0 0 0 0.045295 0.0226514 0 0 0 0 0.136958 0.712913 0 0 0 0 0 0 0 0 0 0 4.96745 1.92451 0.867718 0 0.9064 0 0 0.588943 0 0 0 0 0 0.00726869 0 0 0 0 0.0367637 0 0 0.294412 0 0 0.247703 0 0 1.41688 0 0 0 0.814738 0 0 0 0 2.10417 0
4169 0 0 0 0 0 0 0.307155 0 0.053439 1.39497 0 0 0.155365 0.679063 0 0.756632 0 0 0 16.9881 0 0 0 0 0 0 0 0.140248 0 0 0 0.81217 0.263186 0 0 0.558956 0 0 0 0.242874 4.48825 0 0 4.46175 0 0.144631 0.0127633 0.119267 0 0 0 0 0.730165 0 0.0423966 0 0.00012669 0 0.891251 1.45538 0.0228086 5.24295 0 0 0.156422 0 0 0 0 0 0.173982 1.62791 0.272212 0 0 0.463038 4.43672 0 0 0 0.0068611 0 0 0 0 0 6.86825 11.6044 0 0.657391 0 2.22404 0 0 0 0.0341005 0.301145 0 0 0
1098 0.448175 0.326365 0 0.115105 0 0 0.820521 0 0 1.0997 0.303038 0 0 0.040393 0 0.374605 1.38698 0.0970113 0.734385 0 0 0 0 0 0 0 2.23197 0 0.458311 0 0 0 0 0.0145407 0 0 0.347146 0 0 0.570558 0 0 1.17635 0 0.177559 0 0 0.190986 0 0 0 0.190535 0 0 0 0.298906 0 5.55092 0 0.108185 0 0 0 0 0 0 0 0 0 0 0 0 0 0 0.434377 0 0 0 0 0 0 0 0.83664 0.708758 0.426273 0 0 0 0 0 0 0 0 1.48925 3.28404 0.030534 0 0 0 1.00877
588 0 0 0 0 1.32325 0 0 0.601957 0 0 3.38627 0 0 0 0 0 0.951401 0 0.88582 0.932491 1.21938 0 0 0 0 0.149581 0 0 3.95313 8.68647 0 0 0 13.0607 0 0 0 0 0.271734 0 0 0 0 0 0 0.623762 0 0 0 0 2.25324 0 0 0 0 0 0.00281131 0 0 0 0 0 0 0 0.0856357 0 0 0 0 0.021737 0 0 0.190646 1.04271 0 0 0 0.0464808 0 0 0 0 0 0.137596 0 0.704237 9.85658 0 0.00765134 0 0.306393 0.00891513 0 0 0 0 0 0 0 0
1107 0 0 0 0 0 0 0 0 0 0 0 0.199725 0 0 0 0 0.0265249 0 0 0 0 0 0 0 0 0.0082703 0 0 0 0 0 0 0 0 0 0 0 0 0 0 0 0 0 0 0 0 0 0 0 0 0 0 0 0 0.0691624 0 0 0 0 0 0 0 0 0 0.0663682 0 0 0 0 0 0 0 0 0.0118263 0 0 0 0 0 0 0 0 0 0 0 0 0 0 0.0697535 0 0 0 0 0 0 0 0 0 0 0
601 0.0131525 0 0 0 0 0 0 0 0.0353649 0 0 2.60014 0.208588 0 0 0.487016 0 0 0 0.201439 0 0 0 0 0 0 0 0.0534149 0 0 0 0 0 0 0 58.2778 0 28.4016 0 0 0 0 0 2.37518 0 0.318785 0 0 0 0 0 3.2673 0 0 0 0 0 0 0 0 0 0 0 0 0 0 0 0 0 0 0 0 0 0 0 0 0 0 0 0 0 0 0 0 0.235628 0 0.0487266 0.0319503 0 0 0 0.10867 0 0 0 0 0 0 0 0
3674 0 0.477388 0 0 0 0 0 0.197709 0 0.132657 0 0.104927 0 0 0 0 0 0.00366168 0 0 0 0 0 0 0 0.0402149 0 0 0.496765 0 0.0129714 0.0804637 0 0 0 0 0 0 0 0.139319 0 0.0440034 0 0 0 0 0 0 0 0 1.32872 0 0 0 0 0 0 0 0.0492701 0 0.00482413 0 0 0 0.157793 0 0 0 0 0 0 0.0416679 0 0.211233 0 0 0 0 0 0 0 0 0 0 0.445111 0 1.10003 0 0 0.00355124 0 0 0 0 0 0 0 0 0 0
4187 0.006224 0 0 0 0 0.00279087 0 0 0 0 0 0.501449 0 0.0243708 0 0 0 0 0 0 0 0 0 0 0 0.0379935 0 1.57176 0 0.0553232 0 0 0 0 0 0 0 0 0 0 0 0 0 0 0 0 0 0 0 0 0 0 0 0 0 0 0 0 0 0 0.00172692 0 0 0 0 0 0 0 0 0 0 0 1.43839 0 0 0 0.0330114 0 0 0 0.00178592 0.00376053 0 0 0 0.145572 0.0525465 0 0 0 0 0 0 2.37045 0 0 0 0 0 0
4191 0.161603 4.32491 0 0 0 0 0 12.2519 0 0 0 0.0483303 0 0.0371821 0 0.0372352 0 0.750861 1.05554 1.27515 0 0 0 0 0 1.66238 0 0.756198 0.674846 0.718621 0 0 0 0 0 0 0 0 0.158133 0.0941653 0 0.805172 0 0.112777 0 4.21138 0 0 0 0 0.912667 0.188771 0 0 0 0 0.0138443 0 0.0716558 0 0 0 0.0157653 0.0176597 1.38512 0 0.0140787 0 0 0.0158521 0 1.08905 0.0035675 0 0 0 0 0 0 0 0.887875 0 0 0.910402 0 0 0.0598474 0 0 0 0 0 0.121235 1.71864 0 0 0 0 1.1281 0
607 0 0.0190915 0 0 0 0 0 0 0 0 0 17.4963 0.441589 0 0 0 1.91288 0 0.983538 0 0 0 0 0 0 0 0 0 0.00656535 0 0 0 0 0 0 0 0 0 15.226 0 0 0 7.19771 0 0 0 0.277516 0 0 0 0 0 0 0 0 0.168305 0 0 0 0 0 0 0 0 0.411095 0 0 0 0 0 0.00374816 0 0 242.955 0 0 0 0 0 0 0 0 0 0 0 0.183519 0 0 0 0 0 0 0 0 0 0 0 0 0 0
